{"learner":{"attributes":{"scikit_learn":"{\"_estimator_type\": \"classifier\"}"},"feature_names":[],"feature_types":[],"gradient_booster":{"model":{"cats":{"enc":[],"feature_segments":[],"sorted_idx":[]},"gbtree_model_param":{"num_parallel_tree":"1","num_trees":"900"},"iteration_indptr":[0,3,6,9,12,15,18,21,24,27,30,33,36,39,42,45,48,51,54,57,60,63,66,69,72,75,78,81,84,87,90,93,96,99,102,105,108,111,114,117,120,123,126,129,132,135,138,141,144,147,150,153,156,159,162,165,168,171,174,177,180,183,186,189,192,195,198,201,204,207,210,213,216,219,222,225,228,231,234,237,240,243,246,249,252,255,258,261,264,267,270,273,276,279,282,285,288,291,294,297,300,303,306,309,312,315,318,321,324,327,330,333,336,339,342,345,348,351,354,357,360,363,366,369,372,375,378,381,384,387,390,393,396,399,402,405,408,411,414,417,420,423,426,429,432,435,438,441,444,447,450,453,456,459,462,465,468,471,474,477,480,483,486,489,492,495,498,501,504,507,510,513,516,519,522,525,528,531,534,537,540,543,546,549,552,555,558,561,564,567,570,573,576,579,582,585,588,591,594,597,600,603,606,609,612,615,618,621,624,627,630,633,636,639,642,645,648,651,654,657,660,663,666,669,672,675,678,681,684,687,690,693,696,699,702,705,708,711,714,717,720,723,726,729,732,735,738,741,744,747,750,753,756,759,762,765,768,771,774,777,780,783,786,789,792,795,798,801,804,807,810,813,816,819,822,825,828,831,834,837,840,843,846,849,852,855,858,861,864,867,870,873,876,879,882,885,888,891,894,897,900],"tree_info":[0,1,2,0,1,2,0,1,2,0,1,2,0,1,2,0,1,2,0,1,2,0,1,2,0,1,2,0,1,2,0,1,2,0,1,2,0,1,2,0,1,2,0,1,2,0,1,2,0,1,2,0,1,2,0,1,2,0,1,2,0,1,2,0,1,2,0,1,2,0,1,2,0,1,2,0,1,2,0,1,2,0,1,2,0,1,2,0,1,2,0,1,2,0,1,2,0,1,2,0,1,2,0,1,2,0,1,2,0,1,2,0,1,2,0,1,2,0,1,2,0,1,2,0,1,2,0,1,2,0,1,2,0,1,2,0,1,2,0,1,2,0,1,2,0,1,2,0,1,2,0,1,2,0,1,2,0,1,2,0,1,2,0,1,2,0,1,2,0,1,2,0,1,2,0,1,2,0,1,2,0,1,2,0,1,2,0,1,2,0,1,2,0,1,2,0,1,2,0,1,2,0,1,2,0,1,2,0,1,2,0,1,2,0,1,2,0,1,2,0,1,2,0,1,2,0,1,2,0,1,2,0,1,2,0,1,2,0,1,2,0,1,2,0,1,2,0,1,2,0,1,2,0,1,2,0,1,2,0,1,2,0,1,2,0,1,2,0,1,2,0,1,2,0,1,2,0,1,2,0,1,2,0,1,2,0,1,2,0,1,2,0,1,2,0,1,2,0,1,2,0,1,2,0,1,2,0,1,2,0,1,2,0,1,2,0,1,2,0,1,2,0,1,2,0,1,2,0,1,2,0,1,2,0,1,2,0,1,2,0,1,2,0,1,2,0,1,2,0,1,2,0,1,2,0,1,2,0,1,2,0,1,2,0,1,2,0,1,2,0,1,2,0,1,2,0,1,2,0,1,2,0,1,2,0,1,2,0,1,2,0,1,2,0,1,2,0,1,2,0,1,2,0,1,2,0,1,2,0,1,2,0,1,2,0,1,2,0,1,2,0,1,2,0,1,2,0,1,2,0,1,2,0,1,2,0,1,2,0,1,2,0,1,2,0,1,2,0,1,2,0,1,2,0,1,2,0,1,2,0,1,2,0,1,2,0,1,2,0,1,2,0,1,2,0,1,2,0,1,2,0,1,2,0,1,2,0,1,2,0,1,2,0,1,2,0,1,2,0,1,2,0,1,2,0,1,2,0,1,2,0,1,2,0,1,2,0,1,2,0,1,2,0,1,2,0,1,2,0,1,2,0,1,2,0,1,2,0,1,2,0,1,2,0,1,2,0,1,2,0,1,2,0,1,2,0,1,2,0,1,2,0,1,2,0,1,2,0,1,2,0,1,2,0,1,2,0,1,2,0,1,2,0,1,2,0,1,2,0,1,2,0,1,2,0,1,2,0,1,2,0,1,2,0,1,2,0,1,2,0,1,2,0,1,2,0,1,2,0,1,2,0,1,2,0,1,2,0,1,2,0,1,2,0,1,2,0,1,2,0,1,2,0,1,2,0,1,2,0,1,2,0,1,2,0,1,2,0,1,2,0,1,2,0,1,2,0,1,2,0,1,2,0,1,2,0,1,2,0,1,2,0,1,2,0,1,2,0,1,2,0,1,2,0,1,2,0,1,2,0,1,2,0,1,2,0,1,2,0,1,2,0,1,2,0,1,2,0,1,2,0,1,2,0,1,2,0,1,2,0,1,2,0,1,2,0,1,2,0,1,2,0,1,2,0,1,2,0,1,2,0,1,2,0,1,2,0,1,2,0,1,2,0,1,2,0,1,2,0,1,2,0,1,2,0,1,2,0,1,2,0,1,2,0,1,2,0,1,2,0,1,2,0,1,2,0,1,2,0,1,2,0,1,2,0,1,2,0,1,2,0,1,2,0,1,2,0,1,2,0,1,2,0,1,2,0,1,2,0,1,2,0,1,2,0,1,2,0,1,2,0,1,2,0,1,2,0,1,2,0,1,2,0,1,2,0,1,2,0,1,2,0,1,2,0,1,2,0,1,2,0,1,2,0,1,2,0,1,2,0,1,2,0,1,2,0,1,2,0,1,2,0,1,2,0,1,2,0,1,2],"trees":[{"base_weights":[-5.1351036E-3,-5.113319E-1,1.6005398E-1,-9.616471E-1,-3.5854307E-1,2.0247716E-1,-1.3584641E0,-5.558078E-1,-1.0551823E0,-2.0227751E-1,-6.3791627E-1,7.3851265E-2,3.2261947E-1,-1.597329E0,-1.1840234E0,-1.3190879E-1,-9.285424E-1,6.25849E-2,-1.095337E0,-1.480781E-1,-7.357663E-1,-8.541521E-1,-4.8411065E-1,1.4607336E-1,-2.7850893E-1,-3.948445E-2,3.537061E-1,-1.242832E0,-8.806413E-2,-1.5841783E0,-8.444722E-1,-1.510381E-2,2.1768099E-2,-6.925216E-2,-2.0016309E-2,2.6489291E-2,-1.5969869E-2,-5.610437E-2,3.7173468E-3,-1.9013502E-2,-1.7975115E-3,-1.0295088E-2,-4.6875145E-2,-3.5453107E-2,-5.9443947E-2,-2.2538194E-2,-7.6366775E-2,-3.837705E-2,8.286359E-3,-7.669547E-3,-3.40767E-2,-2.0335445E-2,4.3012267E-3,2.0587046E-2,5.968492E-3,-7.169521E-2,-6.094217E-3,-8.248522E-2,-4.690028E-3,-1.2224414E-3,-6.213326E-2],"categories":[],"categories_nodes":[],"categories_segments":[],"categories_sizes":[],"default_left":[0,0,0,0,0,0,0,0,0,0,0,0,0,0,0,0,0,0,0,0,0,0,0,0,0,0,0,0,0,0,0,0,0,0,0,0,0,0,0,0,0,0,0,0,0,0,0,0,0,0,0,0,0,0,0,0,0,0,0,0,0],"id":0,"left_children":[1,3,5,7,9,11,13,15,17,19,21,23,25,27,29,31,33,35,37,39,41,43,45,47,49,51,53,55,-1,57,59,-1,-1,-1,-1,-1,-1,-1,-1,-1,-1,-1,-1,-1,-1,-1,-1,-1,-1,-1,-1,-1,-1,-1,-1,-1,-1,-1,-1,-1,-1],"loss_changes":[3.9505765E2,7.963425E1,2.2974872E2,1.0569794E1,3.7831932E1,5.354062E1,2.1480408E0,8.9089985E0,1.0738831E1,1.6057194E1,9.944588E0,4.2673744E1,2.0184647E1,2.255249E-2,6.799736E0,2.8257213E0,6.739828E0,1.8092984E0,7.265686E0,1.3232658E1,5.2917137E0,5.3802567E0,5.723068E0,2.5103579E1,1.4282574E1,6.606106E0,2.239473E1,3.1300945E0,0E0,2.4185867E0,1.1247999E1,0E0,0E0,0E0,0E0,0E0,0E0,0E0,0E0,0E0,0E0,0E0,0E0,0E0,0E0,0E0,0E0,0E0,0E0,0E0,0E0,0E0,0E0,0E0,0E0,0E0,0E0,0E0,0E0,0E0,0E0],"parents":[2147483647,0,0,1,1,2,2,3,3,4,4,5,5,6,6,7,7,8,8,9,9,10,10,11,11,12,12,13,13,14,14,15,15,16,16,17,17,18,18,19,19,20,20,21,21,22,22,23,23,24,24,25,25,26,26,27,27,29,29,30,30],"right_children":[2,4,6,8,10,12,14,16,18,20,22,24,26,28,30,32,34,36,38,40,42,44,46,48,50,52,54,56,-1,58,60,-1,-1,-1,-1,-1,-1,-1,-1,-1,-1,-1,-1,-1,-1,-1,-1,-1,-1,-1,-1,-1,-1,-1,-1,-1,-1,-1,-1,-1,-1],"split_conditions":[-9.6117884E-1,-1.3500187E0,1.4532461E0,-1.1503038E0,3.8537228E-1,6.213094E-1,-1.4658949E-1,2.7134892E-1,-6.5097815E-1,8.5798234E-1,-1.2053342E0,4.1412845E-1,-7.423835E-1,-7.9712355E-1,3.703542E-2,-7.6474226E-1,-5.000349E-1,-8.5211806E-2,1.9905425E0,-1.1337092E0,4.276705E-1,1.421883E0,1.3628193E0,-1.7278093E0,-4.36697E-1,-6.1432475E-1,4.1154456E-1,-9.437372E-1,-8.806413E-2,2.4718242E0,3.85789E-1,-1.510381E-2,2.1768099E-2,-6.925216E-2,-2.0016309E-2,2.6489291E-2,-1.5969869E-2,-5.610437E-2,3.7173468E-3,-1.9013502E-2,-1.7975115E-3,-1.0295088E-2,-4.6875145E-2,-3.5453107E-2,-5.9443947E-2,-2.2538194E-2,-7.6366775E-2,-3.837705E-2,8.286359E-3,-7.669547E-3,-3.40767E-2,-2.0335445E-2,4.3012267E-3,2.0587046E-2,5.968492E-3,-7.169521E-2,-6.094217E-3,-8.248522E-2,-4.690028E-3,-1.2224414E-3,-6.213326E-2],"split_indices":[32,32,32,11,1,32,2,30,25,21,32,1,1,11,1,12,29,13,13,0,30,18,26,1,32,29,0,11,0,28,11,0,0,0,0,0,0,0,0,0,0,0,0,0,0,0,0,0,0,0,0,0,0,0,0,0,0,0,0,0,0],"split_type":[0,0,0,0,0,0,0,0,0,0,0,0,0,0,0,0,0,0,0,0,0,0,0,0,0,0,0,0,0,0,0,0,0,0,0,0,0,0,0,0,0,0,0,0,0,0,0,0,0,0,0,0,0,0,0,0,0,0,0,0,0],"sum_hessian":[4.722563E3,1.161433E3,3.56113E3,2.9289328E2,8.6853973E2,3.4651887E3,9.594107E1,5.616063E1,2.3673265E2,5.5809625E2,3.1044348E2,1.6742887E3,1.7909E3,3.7050415E1,5.889066E1,2.6910301E1,2.9250328E1,8.190092E0,2.2854256E2,5.0778568E2,5.0310562E1,1.27141426E2,1.8330205E2,1.3899756E3,2.8431317E2,1.4157158E2,1.6493285E3,1.4430161E1,2.2620253E1,2.5350285E1,3.3540375E1,2.1060236E1,5.8500657E0,1.4820166E1,1.4430161E1,3.5100393E0,4.6800523E0,2.234725E2,5.070057E0,1.6458185E2,3.4320386E2,1.4430161E1,3.58804E1,9.087102E1,3.6270405E1,1.7901201E2,4.290048E0,2.8470318E1,1.3615052E3,2.1801244E2,6.630074E1,3.54904E1,1.06081184E2,1.3213348E3,3.2799368E2,1.2090136E1,2.3400261E0,2.4180271E1,1.1700131E0,1.1310126E1,2.223025E1],"tree_param":{"num_deleted":"0","num_feature":"34","num_nodes":"61","size_leaf_vector":"1"}},{"base_weights":[2.6728706E-3,6.115295E-1,-9.0121165E-2,-1.0393871E-1,7.6769537E-1,-1.2634626E-1,1.3985767E0,9.012998E-1,-1.9624317E-1,4.991861E-1,1.4245007E0,4.8186228E-1,-2.013657E-1,1.5782976E0,-3.2428235E-1,-1.8622331E-2,1.5816437E0,-3.1429052E-1,9.1293536E-2,1.0494218E0,2.3504144E-1,8.947506E-1,1.7054917E0,3.862201E-1,1.6828802E0,-2.6012832E-1,6.915133E-2,1.5534402E-1,1.6895308E0,7.953578E-3,-2.3169665E-2,1.0502293E-1,7.953578E-3,5.047072E-3,-2.3306696E-2,4.8095755E-2,-1.276415E-2,6.3413315E-2,2.337191E-2,-3.4978434E-3,2.3292242E-2,8.477318E-2,4.763926E-3,9.0651296E-2,-2.0607835E-2,1.3524701E-2,4.5322657E-2,9.144262E-2,-1.5365425E-2,5.2467445E-3,-1.4520031E-2,-1.3985519E-2,9.72859E-3,-2.0607835E-2,4.655045E-2,9.039785E-2,9.562094E-3],"categories":[],"categories_nodes":[],"categories_segments":[],"categories_sizes":[],"default_left":[0,0,0,0,0,0,0,0,0,0,0,0,0,0,0,0,0,0,0,0,0,0,0,0,0,0,0,0,0,0,0,0,0,0,0,0,0,0,0,0,0,0,0,0,0,0,0,0,0,0,0,0,0,0,0,0,0],"id":1,"left_children":[1,3,5,7,9,11,13,15,17,19,21,23,25,27,29,-1,31,33,35,37,39,41,43,45,47,49,51,53,55,-1,-1,-1,-1,-1,-1,-1,-1,-1,-1,-1,-1,-1,-1,-1,-1,-1,-1,-1,-1,-1,-1,-1,-1,-1,-1,-1,-1],"loss_changes":[1.5742891E2,4.125389E1,1.305726E2,6.384801E0,5.26557E1,1.07843155E2,1.8322632E1,5.620067E0,2.136512E0,3.119566E1,1.1464691E1,2.9167847E1,3.3445465E1,8.009079E0,4.9484903E-1,0E0,2.5995245E0,2.8370118E0,5.9330363E0,8.307259E0,1.0412581E1,2.0547478E1,1.34814E1,1.43083E1,6.037918E0,1.9124786E1,1.6508715E1,2.5363371E0,8.236649E0,0E0,0E0,0E0,0E0,0E0,0E0,0E0,0E0,0E0,0E0,0E0,0E0,0E0,0E0,0E0,0E0,0E0,0E0,0E0,0E0,0E0,0E0,0E0,0E0,0E0,0E0,0E0,0E0],"parents":[2147483647,0,0,1,1,2,2,3,3,4,4,5,5,6,6,7,7,8,8,9,9,10,10,11,11,12,12,13,13,14,14,16,16,17,17,18,18,19,19,20,20,21,21,22,22,23,23,24,24,25,25,26,26,27,27,28,28],"right_children":[2,4,6,8,10,12,14,16,18,20,22,24,26,28,30,-1,32,34,36,38,40,42,44,46,48,50,52,54,56,-1,-1,-1,-1,-1,-1,-1,-1,-1,-1,-1,-1,-1,-1,-1,-1,-1,-1,-1,-1,-1,-1,-1,-1,-1,-1,-1,-1],"split_conditions":[-1.1962913E0,-7.2776324E-1,1.4532461E0,-3.6639914E-1,6.0695976E-1,-7.2861457E-1,7.808701E-1,1.2248688E0,8.398894E-1,-6.1432475E-1,-4.816411E-1,1.2547598E0,4.5751038E-1,-1.4054241E0,7.1829313E-1,-1.8622331E-2,2.9800348E0,-4.6094254E-1,2.8171283E-1,-1.2776765E0,-3.7633443E-1,-6.1432475E-1,1.7814852E0,5.3978795E-1,9.941408E-1,-8.430676E-1,-6.047022E-1,-3.5417667E-1,1.2864938E0,7.953578E-3,-2.3169665E-2,1.0502293E-1,7.953578E-3,5.047072E-3,-2.3306696E-2,4.8095755E-2,-1.276415E-2,6.3413315E-2,2.337191E-2,-3.4978434E-3,2.3292242E-2,8.477318E-2,4.763926E-3,9.0651296E-2,-2.0607835E-2,1.3524701E-2,4.5322657E-2,9.144262E-2,-1.5365425E-2,5.2467445E-3,-1.4520031E-2,-1.3985519E-2,9.72859E-3,-2.0607835E-2,4.655045E-2,9.039785E-2,9.562094E-3],"split_indices":[32,28,32,6,9,29,1,10,26,29,28,17,1,12,0,0,0,25,20,32,6,29,12,1,12,31,28,17,11,0,0,0,0,0,0,0,0,0,0,0,0,0,0,0,0,0,0,0,0,0,0,0,0,0,0,0,0],"split_type":[0,0,0,0,0,0,0,0,0,0,0,0,0,0,0,0,0,0,0,0,0,0,0,0,0,0,0,0,0,0,0,0,0,0,0,0,0,0,0,0,0,0,0,0,0,0,0,0,0,0,0,0,0,0,0,0,0],"sum_hessian":[2.7844622E3,3.6750873E2,2.4169534E3,6.590443E1,3.016043E2,2.3604312E3,5.65222E1,4.8055315E0,6.1098896E1,2.1533357E2,8.627073E1,2.5858334E2,2.101848E3,5.1259E1,5.2632008E0,1.8306786E0,2.9748528E0,4.3249783E1,1.7849115E1,6.887928E1,1.4645428E2,3.135037E1,5.4920357E1,2.4073424E2,1.7849115E1,1.7267876E3,3.7506027E2,3.890192E0,4.736881E1,1.1441741E0,4.1190267E0,1.8306786E0,1.1441741E0,1.1670576E1,3.1579206E1,4.5766964E0,1.327242E1,4.9199486E1,1.9679794E1,6.3387245E1,8.306704E1,1.5103098E1,1.6247272E1,5.2403175E1,2.517183E0,1.9817096E2,4.256328E1,1.6704943E1,1.1441741E0,1.3203769E2,1.5947499E3,9.885664E1,2.7620364E2,2.517183E0,1.373009E0,4.370745E1,3.6613572E0],"tree_param":{"num_deleted":"0","num_feature":"34","num_nodes":"57","size_leaf_vector":"1"}},{"base_weights":[2.9805794E-3,4.9855703E-1,-1.6613582E-1,1.337456E0,3.4019142E-1,-1.9748092E-1,9.514879E-1,2.239637E0,1.1785939E0,-1.611476E-1,4.5372328E-1,2.8761563E-1,-2.5721353E-1,7.3091483E-1,1.3805136E-1,2.759909E0,8.8536584E-1,1.3265128E0,6.761806E-1,7.647583E-2,-2.775714E-1,9.807793E-1,3.1956702E-1,1.9571114E-1,1.3047307E0,-1.2819062E-1,-3.8038638E-1,1.4894315E0,3.5011217E-1,1.4998646E-1,5.1353324E-2,-1.5487089E-2,6.2264796E-2,8.209394E-2,4.698799E-2,-2.5215158E-3,4.5253057E-2,-2.1812694E-2,1.4153413E-2,-1.67422E-2,1.2510474E-2,3.222716E-2,6.93319E-2,-3.682643E-3,2.082475E-2,1.755769E-2,-1.3802356E-2,9.508764E-2,3.239866E-2,-8.012652E-3,1.9166406E-2,-7.8159955E-4,-1.9976972E-2,8.718136E-2,-5.0805854E-3,-1.8425083E-2,3.4652423E-2],"categories":[],"categories_nodes":[],"categories_segments":[],"categories_sizes":[],"default_left":[0,0,0,0,0,0,0,0,0,0,0,0,0,0,0,0,0,0,0,0,0,0,0,0,0,0,0,0,0,0,0,0,0,0,0,0,0,0,0,0,0,0,0,0,0,0,0,0,0,0,0,0,0,0,0,0,0],"id":2,"left_children":[1,3,5,7,9,11,13,15,17,19,21,23,25,27,-1,29,31,33,35,37,39,41,43,45,47,49,51,53,55,-1,-1,-1,-1,-1,-1,-1,-1,-1,-1,-1,-1,-1,-1,-1,-1,-1,-1,-1,-1,-1,-1,-1,-1,-1,-1,-1,-1],"loss_changes":[2.3535274E2,9.4464905E1,7.353458E1,1.3572647E1,3.435804E1,5.9110237E1,2.0848545E1,8.706902E0,6.40773E0,3.118581E0,3.4432274E1,2.0669098E1,2.8788582E1,1.4621454E1,0E0,1.474083E0,2.9084067E0,7.5919495E0,4.1029367E0,4.1063423E0,2.3616815E0,1.2646042E1,1.5016315E1,1.5237759E1,5.971966E0,1.4620949E1,6.475662E0,7.139679E0,9.179043E0,0E0,0E0,0E0,0E0,0E0,0E0,0E0,0E0,0E0,0E0,0E0,0E0,0E0,0E0,0E0,0E0,0E0,0E0,0E0,0E0,0E0,0E0,0E0,0E0,0E0,0E0,0E0,0E0],"parents":[2147483647,0,0,1,1,2,2,3,3,4,4,5,5,6,6,7,7,8,8,9,9,10,10,11,11,12,12,13,13,15,15,16,16,17,17,18,18,19,19,20,20,21,21,22,22,23,23,24,24,25,25,26,26,27,27,28,28],"right_children":[2,4,6,8,10,12,14,16,18,20,22,24,26,28,-1,30,32,34,36,38,40,42,44,46,48,50,52,54,56,-1,-1,-1,-1,-1,-1,-1,-1,-1,-1,-1,-1,-1,-1,-1,-1,-1,-1,-1,-1,-1,-1,-1,-1,-1,-1,-1,-1],"split_conditions":[-9.4309324E-1,-7.2776324E-1,1.4532461E0,-1.4314039E0,-6.79784E-1,-7.2776324E-1,7.808701E-1,1.4503266E0,-1.5716547E-1,-2.4473166E-1,-1.3771472E0,1.1712464E0,6.39395E-1,-2.5842905E-1,1.3805136E-1,2.9620516E0,-4.441564E-1,2.7633274E-1,-4.1469538E-1,-1.0873853E0,2.782385E0,2.0140517E0,-6.1432475E-1,1.0824916E0,4.63201E-1,8.924563E-1,-8.566351E-1,2.6207402E-1,2.1767534E-2,1.4998646E-1,5.1353324E-2,-1.5487089E-2,6.2264796E-2,8.209394E-2,4.698799E-2,-2.5215158E-3,4.5253057E-2,-2.1812694E-2,1.4153413E-2,-1.67422E-2,1.2510474E-2,3.222716E-2,6.93319E-2,-3.682643E-3,2.082475E-2,1.755769E-2,-1.3802356E-2,9.508764E-2,3.239866E-2,-8.012652E-3,1.9166406E-2,-7.8159955E-4,-1.9976972E-2,8.718136E-2,-5.0805854E-3,-1.8425083E-2,3.4652423E-2],"split_indices":[32,28,32,32,31,28,1,19,29,17,32,21,32,9,0,2,11,22,26,12,17,17,29,32,31,0,1,0,5,0,0,0,0,0,0,0,0,0,0,0,0,0,0,0,0,0,0,0,0,0,0,0,0,0,0,0,0],"split_type":[0,0,0,0,0,0,0,0,0,0,0,0,0,0,0,0,0,0,0,0,0,0,0,0,0,0,0,0,0,0,0,0,0,0,0,0,0,0,0,0,0,0,0,0,0,0,0,0,0,0,0,0,0,0,0,0,0],"sum_hessian":[2.8061782E3,7.134744E2,2.0927039E3,1.1211741E2,6.01357E2,2.0364135E3,5.629035E1,1.4825442E1,9.729196E1,1.1095917E2,4.9039783E2,2.2284492E2,1.8135686E3,5.1425755E1,4.8645983E0,9.960844E0,4.8645983E0,7.389556E1,2.33964E1,3.660031E1,7.435886E1,9.821855E1,3.921793E2,2.0547136E2,1.7373566E1,8.8674677E2,9.268218E2,1.6215328E1,3.5210426E1,8.107664E0,1.8531803E0,1.1582377E0,3.7063606E0,3.8916786E1,3.497878E1,5.7911882E0,1.7605213E1,1.0192492E1,2.640782E1,6.740943E1,6.949426E0,5.5132114E1,4.308644E1,7.760192E1,3.1457736E2,1.5474055E2,5.0730812E1,8.107664E0,9.265902E0,8.3508936E2,5.1657402E1,4.6329506E1,8.804923E2,1.3898852E1,2.3164754E0,1.1350729E1,2.3859695E1],"tree_param":{"num_deleted":"0","num_feature":"34","num_nodes":"57","size_leaf_vector":"1"}},{"base_weights":[-4.2124935E-3,-4.847873E-1,1.5478046E-1,-8.977726E-1,-3.3590028E-1,1.9742493E-1,-1.2397573E0,-5.3487986E-1,-1.0129778E0,-1.8991828E-1,-5.811965E-1,6.939741E-2,3.1728375E-1,-1.4347543E0,-9.3752724E-1,-4.1757008E-1,-1.287816E0,-1.8581088E-1,-1.0445737E0,-3.1946293E-1,1.2101371E-2,-8.1507295E-1,-4.3381906E-1,1.4904185E-1,-2.3749541E-1,3.7494573E-1,1.09489515E-1,-1.4773088E0,-8.690063E-1,-4.317436E-1,-1.3025305E0,-9.59502E-3,-4.420094E-2,-1.6992895E-2,-7.1505964E-2,-4.808348E-2,9.867004E-3,9.1111995E-3,-5.2914675E-2,-1.3719657E-2,-5.8054604E-2,-1.14923185E-2,9.196641E-3,-1.1286108E-2,-4.4060577E-2,-2.5322083E-2,-2.6812027E-3,-7.51226E-3,1.1340345E-2,-4.788888E-3,-2.9911503E-2,2.0279752E-2,-3.8426358E-3,-1.7867828E-2,8.067398E-3,-2.462681E-2,-7.453461E-2,2.9462161E-3,-5.881709E-2,-4.174759E-2,1.2357627E-2,-6.978658E-2,2.1662188E-3],"categories":[],"categories_nodes":[],"categories_segments":[],"categories_sizes":[],"default_left":[0,0,0,0,0,0,0,0,0,0,0,0,0,0,0,0,0,0,0,0,0,0,0,0,0,0,0,0,0,0,0,0,0,0,0,0,0,0,0,0,0,0,0,0,0,0,0,0,0,0,0,0,0,0,0,0,0,0,0,0,0,0,0],"id":3,"left_children":[1,3,5,7,9,11,13,15,17,19,21,23,25,27,29,31,33,35,37,39,41,43,45,47,49,51,53,55,57,59,61,-1,-1,-1,-1,-1,-1,-1,-1,-1,-1,-1,-1,-1,-1,-1,-1,-1,-1,-1,-1,-1,-1,-1,-1,-1,-1,-1,-1,-1,-1,-1,-1],"loss_changes":[3.6195233E2,7.210776E1,2.1192603E2,1.2479034E1,3.0941742E1,5.299185E1,4.8874817E0,6.278221E0,5.9550476E0,1.4269934E1,1.0781136E1,4.0896347E1,2.1334717E1,2.184143E-1,7.6270065E0,7.01408E0,8.524742E-1,3.1247294E0,4.003647E0,1.2281414E1,8.936894E0,4.6242523E0,5.503456E0,3.093952E1,1.757172E1,1.9363174E1,9.473713E0,1.1772156E-2,2.00675E0,5.70568E0,3.2301903E0,0E0,0E0,0E0,0E0,0E0,0E0,0E0,0E0,0E0,0E0,0E0,0E0,0E0,0E0,0E0,0E0,0E0,0E0,0E0,0E0,0E0,0E0,0E0,0E0,0E0,0E0,0E0,0E0,0E0,0E0,0E0,0E0],"parents":[2147483647,0,0,1,1,2,2,3,3,4,4,5,5,6,6,7,7,8,8,9,9,10,10,11,11,12,12,13,13,14,14,15,15,16,16,17,17,18,18,19,19,20,20,21,21,22,22,23,23,24,24,25,25,26,26,27,27,28,28,29,29,30,30],"right_children":[2,4,6,8,10,12,14,16,18,20,22,24,26,28,30,32,34,36,38,40,42,44,46,48,50,52,54,56,58,60,62,-1,-1,-1,-1,-1,-1,-1,-1,-1,-1,-1,-1,-1,-1,-1,-1,-1,-1,-1,-1,-1,-1,-1,-1,-1,-1,-1,-1,-1,-1,-1,-1],"split_conditions":[-9.6117884E-1,-1.3500187E0,1.4532461E0,-9.691116E-1,3.0829737E-1,6.213094E-1,1.4297064E-1,1.738575E-2,-2.9448086E-1,-2.3551899E-1,-1.2143769E0,3.5129285E-1,5.4777193E-1,4.851148E-1,2.707766E-1,5.839921E-1,-1.4394339E0,-1.2849946E-1,-9.527856E-1,1.2079034E0,-9.2068946E-1,-2.430751E0,5.685256E-1,-6.822111E-1,-4.457398E-1,6.610554E-1,-7.423835E-1,-1.6206013E0,-5.000349E-1,1.6017501E-1,3.3816457E0,-9.59502E-3,-4.420094E-2,-1.6992895E-2,-7.1505964E-2,-4.808348E-2,9.867004E-3,9.1111995E-3,-5.2914675E-2,-1.3719657E-2,-5.8054604E-2,-1.14923185E-2,9.196641E-3,-1.1286108E-2,-4.4060577E-2,-2.5322083E-2,-2.6812027E-3,-7.51226E-3,1.1340345E-2,-4.788888E-3,-2.9911503E-2,2.0279752E-2,-3.8426358E-3,-1.7867828E-2,8.067398E-3,-2.462681E-2,-7.453461E-2,2.9462161E-3,-5.881709E-2,-4.174759E-2,1.2357627E-2,-6.978658E-2,2.1662188E-3],"split_indices":[32,32,32,11,1,32,22,1,17,28,32,1,23,26,1,30,10,6,24,11,1,2,3,0,32,1,1,11,29,0,23,0,0,0,0,0,0,0,0,0,0,0,0,0,0,0,0,0,0,0,0,0,0,0,0,0,0,0,0,0,0,0,0],"split_type":[0,0,0,0,0,0,0,0,0,0,0,0,0,0,0,0,0,0,0,0,0,0,0,0,0,0,0,0,0,0,0,0,0,0,0,0,0,0,0,0,0,0,0,0,0,0,0,0,0,0,0,0,0,0,0,0,0,0,0,0,0,0,0],"sum_hessian":[4.735117E3,1.1766143E3,3.5585032E3,3.1045078E2,8.6616345E2,3.453747E3,1.04755936E2,7.61677E1,2.3428307E2,5.4411884E2,3.2204462E2,1.6707306E3,1.7830166E3,6.1396248E1,4.3359684E1,6.724527E1,8.922434E0,8.872991E0,2.2541008E2,3.3117334E2,2.129455E2,1.2273819E2,1.9930644E2,1.3268916E3,3.438389E2,1.3950829E3,3.8793378E2,5.5602665E1,5.7935834E0,1.908983E1,2.4269854E1,4.627072E1,2.0974548E1,1.6068187E0,7.3156157E0,2.4341269E0,6.4388638E0,2.3571332E0,2.2305295E2,3.1559885E2,1.5574494E1,8.829037E1,1.2465513E2,1.282948E1,1.09908714E2,1.6706299E2,3.2243443E1,2.7347235E2,1.0534193E3,2.4776704E2,9.607186E1,1.3065508E3,8.85321E1,3.819544E1,3.4973834E2,1.2523772E0,5.435029E1,1.6425489E0,4.1510344E0,1.183246E1,7.25737E0,2.266335E1,1.6065058E0],"tree_param":{"num_deleted":"0","num_feature":"34","num_nodes":"63","size_leaf_vector":"1"}},{"base_weights":[5.389231E-3,4.9237838E-1,-1.0593945E-1,3.190107E-1,1.0629792E0,-1.4133352E-1,1.1356503E0,1.1746758E0,2.1558371E-1,1.6322094E0,8.21661E-1,3.332555E-1,-2.0146589E-1,1.2785157E0,-3.2917857E-1,5.3650415E-1,1.465016E0,7.608132E-1,1.3112922E-1,-1.4886059E-1,1.7849921E0,-2.012591E-2,1.1027492E0,1.2013264E0,2.0124242E-1,-2.4994133E-1,1.3538249E-1,5.3828806E-3,1.4490299E0,7.5167604E-3,-2.330581E-2,9.023486E-2,6.035957E-3,3.84256E-2,9.1436274E-2,9.840872E-2,2.6403917E-2,5.750589E-3,1.0379272E-1,7.5063654E-3,-1.7478904E-2,9.559258E-2,8.580211E-3,-1.2671008E-2,7.0126735E-2,4.051386E-2,8.9704834E-2,-5.164831E-3,7.060237E-2,2.5664682E-3,3.606947E-2,6.8638134E-3,-1.42399E-2,4.775364E-2,3.8835758E-3,-1.5490389E-2,3.0271623E-2,3.923745E-2,8.918704E-2],"categories":[],"categories_nodes":[],"categories_segments":[],"categories_sizes":[],"default_left":[0,0,0,0,0,0,0,0,0,0,0,0,0,0,0,0,0,0,0,0,0,0,0,0,0,0,0,0,0,0,0,0,0,0,0,0,0,0,0,0,0,0,0,0,0,0,0,0,0,0,0,0,0,0,0,0,0,0,0],"id":4,"left_children":[1,3,5,7,9,11,13,15,17,19,21,23,25,27,29,31,33,35,37,39,41,43,45,47,49,51,53,55,57,-1,-1,-1,-1,-1,-1,-1,-1,-1,-1,-1,-1,-1,-1,-1,-1,-1,-1,-1,-1,-1,-1,-1,-1,-1,-1,-1,-1,-1,-1],"loss_changes":[1.49951E2,5.0570198E1,9.9090225E1,3.4804302E1,1.5073563E1,6.2557533E1,1.3502045E1,7.0875587E0,1.623044E1,9.670876E0,2.0355423E1,2.8020323E1,3.1778656E1,1.2400406E1,4.870301E-1,7.6205916E0,5.8469086E0,1.2267729E1,9.424116E0,2.7174428E-1,6.202919E0,7.8210506E0,1.15759735E1,9.04018E0,1.6748943E1,2.2982384E1,1.1526166E1,1.6542377E0,9.806892E0,0E0,0E0,0E0,0E0,0E0,0E0,0E0,0E0,0E0,0E0,0E0,0E0,0E0,0E0,0E0,0E0,0E0,0E0,0E0,0E0,0E0,0E0,0E0,0E0,0E0,0E0,0E0,0E0,0E0,0E0],"parents":[2147483647,0,0,1,1,2,2,3,3,4,4,5,5,6,6,7,7,8,8,9,9,10,10,11,11,12,12,13,13,14,14,15,15,16,16,17,17,18,18,19,19,20,20,21,21,22,22,23,23,24,24,25,25,26,26,27,27,28,28],"right_children":[2,4,6,8,10,12,14,16,18,20,22,24,26,28,30,32,34,36,38,40,42,44,46,48,50,52,54,56,58,-1,-1,-1,-1,-1,-1,-1,-1,-1,-1,-1,-1,-1,-1,-1,-1,-1,-1,-1,-1,-1,-1,-1,-1,-1,-1,-1,-1,-1,-1],"split_conditions":[-1.0968207E0,1.1712464E0,1.4532461E0,-8.430676E-1,-6.1432475E-1,-7.2861457E-1,7.808701E-1,-2.396143E-1,-7.2861457E-1,-2.939155E-1,-5.1025903E-1,-9.5021814E-1,6.2466335E-1,-8.229022E-1,-5.000349E-1,-9.124769E-1,-1.0520496E0,-1.4325619E0,4.5302815E0,-3.7675413E-1,4.553669E0,2.1092534E0,1.4936731E0,-1.6933098E0,4.716347E-1,-8.430676E-1,-8.430676E-1,5.4544365E-1,-2.5842905E-1,7.5167604E-3,-2.330581E-2,9.023486E-2,6.035957E-3,3.84256E-2,9.1436274E-2,9.840872E-2,2.6403917E-2,5.750589E-3,1.0379272E-1,7.5063654E-3,-1.7478904E-2,9.559258E-2,8.580211E-3,-1.2671008E-2,7.0126735E-2,4.051386E-2,8.9704834E-2,-5.164831E-3,7.060237E-2,2.5664682E-3,3.606947E-2,6.8638134E-3,-1.42399E-2,4.775364E-2,3.8835758E-3,-1.5490389E-2,3.0271623E-2,3.923745E-2,8.918704E-2],"split_indices":[32,21,32,31,29,29,1,17,29,17,30,22,0,30,29,20,1,12,0,26,21,9,19,11,1,31,31,6,9,0,0,0,0,0,0,0,0,0,0,0,0,0,0,0,0,0,0,0,0,0,0,0,0,0,0,0,0,0,0],"split_type":[0,0,0,0,0,0,0,0,0,0,0,0,0,0,0,0,0,0,0,0,0,0,0,0,0,0,0,0,0,0,0,0,0,0,0,0,0,0,0,0,0,0,0,0,0,0,0,0,0,0,0,0,0,0,0,0,0,0,0],"sum_hessian":[2.7638525E3,5.136317E2,2.2502207E3,3.9513538E2,1.1849631E2,2.1887131E3,6.1507614E1,4.1493843E1,3.5364154E2,3.3562984E1,8.493333E1,2.456221E2,1.9430911E3,5.6157715E1,5.3498983E0,1.3865384E1,2.762846E1,4.6357E1,3.0728455E2,2.6536481E0,3.0909336E1,2.1493683E1,6.3439644E1,3.1353384E1,2.1426872E2,1.6988672E3,2.4422392E2,6.754824E0,4.940289E1,1.1666853E0,4.183213E0,2.598672E0,1.1266712E1,1.0545947E1,1.7082514E1,6.2866983E0,4.00703E1,3.058092E2,1.4753357E0,1.1671351E0,1.4865131E0,2.848462E1,2.4247177E0,1.9171692E1,2.3219907E0,4.6106487E1,1.7333155E1,4.4308357E0,2.6922548E1,1.6718307E2,4.7085636E1,1.4005687E2,1.5588103E3,1.5041054E1,2.2918286E2,4.745717E0,2.009107E0,1.7672962E1,3.1729927E1],"tree_param":{"num_deleted":"0","num_feature":"34","num_nodes":"59","size_leaf_vector":"1"}},{"base_weights":[9.814166E-4,-1.6844991E-1,4.876716E-1,9.5510346E-1,-1.9638695E-1,1.2230949E0,3.3620507E-1,1.6800752E0,5.893911E-1,2.4397016E-1,-2.521968E-1,1.0824965E0,2.0901396E0,-1.6597128E-1,4.4746727E-1,1.8661653E0,-1.6334364E-2,3.165444E-1,1.9424458E0,1.7070402E-1,1.329636E0,-3.5702595E-1,-1.1888092E-1,9.820921E-1,2.0485373E0,1.0010004E-2,2.2028193E0,-1.4776156E-2,-3.359482E-1,3.074609E-1,9.1033435E-1,1.00691296E-1,5.866583E-3,-1.4764524E-2,3.5158824E-2,1.1263646E-1,2.5970409E-2,-8.349905E-3,1.5263594E-2,8.690926E-2,7.968979E-3,-4.1853148E-4,-1.8940374E-2,1.9684734E-2,-7.945428E-3,5.9338637E-2,2.5722696E-2,1.1600118E-1,6.5418645E-3,1.1765354E-1,3.466653E-2,1.5684161E-2,-8.6269025E-3,2.5040537E-2,-1.9249601E-2,5.336957E-2,1.1954406E-2,7.679977E-2,3.3827163E-2],"categories":[],"categories_nodes":[],"categories_segments":[],"categories_sizes":[],"default_left":[0,0,0,0,0,0,0,0,0,0,0,0,0,0,0,0,0,0,0,0,0,0,0,0,0,0,0,0,0,0,0,0,0,0,0,0,0,0,0,0,0,0,0,0,0,0,0,0,0,0,0,0,0,0,0,0,0,0,0],"id":5,"left_children":[1,3,5,7,9,11,13,15,17,19,21,23,25,27,29,31,-1,33,35,37,39,41,43,45,47,-1,49,51,53,55,57,-1,-1,-1,-1,-1,-1,-1,-1,-1,-1,-1,-1,-1,-1,-1,-1,-1,-1,-1,-1,-1,-1,-1,-1,-1,-1,-1,-1],"loss_changes":[2.3302267E2,6.5982925E1,8.0874695E1,1.2538475E1,5.034745E1,1.2883743E1,3.396035E1,6.79718E0,1.2475161E1,1.8120274E1,2.534327E1,8.559082E0,3.0221329E0,2.840756E0,3.191175E1,3.717785E0,0E0,7.4703226E0,1.3712273E0,9.922517E0,6.624304E0,7.715393E0,1.64986E1,9.022827E0,4.559059E0,0E0,1.8266373E0,3.1450138E0,2.3301096E0,1.9639729E1,1.576062E1,0E0,0E0,0E0,0E0,0E0,0E0,0E0,0E0,0E0,0E0,0E0,0E0,0E0,0E0,0E0,0E0,0E0,0E0,0E0,0E0,0E0,0E0,0E0,0E0,0E0,0E0,0E0,0E0],"parents":[2147483647,0,0,1,1,2,2,3,3,4,4,5,5,6,6,7,7,8,8,9,9,10,10,11,11,12,12,13,13,14,14,15,15,17,17,18,18,19,19,20,20,21,21,22,22,23,23,24,24,26,26,27,27,28,28,29,29,30,30],"right_children":[2,4,6,8,10,12,14,16,18,20,22,24,26,28,30,32,-1,34,36,38,40,42,44,46,48,-1,50,52,54,56,58,-1,-1,-1,-1,-1,-1,-1,-1,-1,-1,-1,-1,-1,-1,-1,-1,-1,-1,-1,-1,-1,-1,-1,-1,-1,-1,-1,-1],"split_conditions":[9.5213604E-1,-1.4532461E0,-7.2776324E-1,-2.5842905E-1,-7.2776324E-1,1.4404467E0,-6.79784E-1,1.1181526E0,7.544741E-1,1.4886678E0,-5.4896706E-1,1.884126E0,-1.3132066E0,-2.3551899E-1,1.3681043E0,4.5737247E0,-1.6334364E-2,8.775988E-2,5.4544365E-1,-1.0372777E0,2.157344E0,-8.566351E-1,-8.229022E-1,4.276705E-1,1.0779376E0,1.0010004E-2,4.5737247E0,-2.4154039E-1,-8.805133E-1,-8.229022E-1,-5.1025903E-1,1.00691296E-1,5.866583E-3,-1.4764524E-2,3.5158824E-2,1.1263646E-1,2.5970409E-2,-8.349905E-3,1.5263594E-2,8.690926E-2,7.968979E-3,-4.1853148E-4,-1.8940374E-2,1.9684734E-2,-7.945428E-3,5.9338637E-2,2.5722696E-2,1.1600118E-1,6.5418645E-3,1.1765354E-1,3.466653E-2,1.5684161E-2,-8.6269025E-3,2.5040537E-2,-1.9249601E-2,5.336957E-2,1.1954406E-2,7.679977E-2,3.3827163E-2],"split_indices":[33,33,28,9,28,33,31,28,1,3,33,13,6,28,33,8,0,5,6,33,16,1,30,30,25,0,7,17,25,30,30,0,0,0,0,0,0,0,0,0,0,0,0,0,0,0,0,0,0,0,0,0,0,0,0,0,0,0,0],"split_type":[0,0,0,0,0,0,0,0,0,0,0,0,0,0,0,0,0,0,0,0,0,0,0,0,0,0,0,0,0,0,0,0,0,0,0,0,0,0,0,0,0,0,0,0,0,0,0,0,0,0,0,0,0,0,0,0,0,0,0],"sum_hessian":[2.823872E3,2.095144E3,7.2872797E2,5.002644E1,2.0451176E3,1.23246735E2,6.0548126E2,1.5569059E1,3.445738E1,2.2965965E2,1.8154579E3,1.0798462E2,1.52621155E1,1.09729774E2,4.9575146E2,1.4311952E1,1.2571075E0,2.9701874E1,4.7555056E0,2.1622495E2,1.3434701E1,1.01537134E3,8.000865E2,9.964476E1,8.339859E0,1.0149759E0,1.4247139E1,5.864857E1,5.1081203E1,3.819E2,1.1385148E2,1.3057898E1,1.2540535E0,1.1592812E1,1.8109062E1,3.4255464E0,1.329959E0,6.1542118E1,1.5468283E2,9.598469E0,3.8362317E0,5.9784824E1,9.5558655E2,5.7313988E1,7.427725E2,6.823929E1,3.1405476E1,7.121835E0,1.2180244E0,1.2449125E1,1.7980137E0,1.8708744E1,3.993983E1,2.318181E0,4.8763023E1,3.0318058E1,3.5158194E2,2.9455107E1,8.439637E1],"tree_param":{"num_deleted":"0","num_feature":"34","num_nodes":"59","size_leaf_vector":"1"}},{"base_weights":[-7.730359E-3,-4.8614553E-1,1.4317173E-1,-8.7553066E-1,-3.3200213E-1,1.830078E-1,-1.1134648E0,-5.3605276E-1,-9.857738E-1,-2.3423322E-1,-6.0237193E-1,-1.8200043E-1,2.2304761E-1,-1.2698607E0,-8.0582845E-1,-1.2268825E0,-4.062309E-1,1.484537E-1,-1.00551E0,-1.8945274E-1,-5.620531E-1,-6.3072234E-1,4.3203688E-1,-7.281653E-1,-1.1386163E-1,2.968354E-1,-2.3593016E-2,-1.2996475E0,-3.3220053E-1,-3.1976837E-1,-1.158225E0,7.593603E-3,-7.613588E-2,-7.282741E-3,-4.575266E-2,2.5114669E-2,-2.5834827E-2,-5.2373927E-2,-3.0221451E-2,-1.9743878E-2,-5.348103E-3,-4.78995E-2,-1.2367519E-2,-1.0616462E-2,-3.4607697E-2,2.8225545E-2,-3.3612035E-3,-4.4911265E-2,-8.592585E-3,-4.6006567E-3,-6.717473E-2,1.6913923E-2,2.6436E-3,-8.499105E-3,9.997189E-3,-6.690209E-2,-3.6882635E-2,1.970282E-2,-4.496741E-2,-6.0412932E-2,-3.1987743E-3,-6.4622305E-2,6.931024E-3],"categories":[],"categories_nodes":[],"categories_segments":[],"categories_sizes":[],"default_left":[0,0,0,0,0,0,0,0,0,0,0,0,0,0,0,0,0,0,0,0,0,0,0,0,0,0,0,0,0,0,0,0,0,0,0,0,0,0,0,0,0,0,0,0,0,0,0,0,0,0,0,0,0,0,0,0,0,0,0,0,0,0,0],"id":6,"left_children":[1,3,5,7,9,11,13,15,17,19,21,23,25,27,29,31,33,35,37,39,41,43,45,47,49,51,53,55,57,59,61,-1,-1,-1,-1,-1,-1,-1,-1,-1,-1,-1,-1,-1,-1,-1,-1,-1,-1,-1,-1,-1,-1,-1,-1,-1,-1,-1,-1,-1,-1,-1,-1],"loss_changes":[3.3978534E2,6.744742E1,1.7931831E2,1.1426987E1,2.127346E1,5.0738846E1,4.273102E0,6.7212887E0,5.520569E0,8.651684E0,6.5632706E0,1.269909E1,5.690619E1,1.5580597E0,6.453352E0,5.223627E0,9.049817E0,1.4304692E0,3.3389587E0,8.878187E0,8.634001E0,5.229927E0,4.556744E-1,3.4323463E0,8.112087E0,2.431427E1,2.362391E1,4.9551392E-1,1.8112215E0,4.041969E0,4.132698E0,0E0,0E0,0E0,0E0,0E0,0E0,0E0,0E0,0E0,0E0,0E0,0E0,0E0,0E0,0E0,0E0,0E0,0E0,0E0,0E0,0E0,0E0,0E0,0E0,0E0,0E0,0E0,0E0,0E0,0E0,0E0,0E0],"parents":[2147483647,0,0,1,1,2,2,3,3,4,4,5,5,6,6,7,7,8,8,9,9,10,10,11,11,12,12,13,13,14,14,15,15,16,16,17,17,18,18,19,19,20,20,21,21,22,22,23,23,24,24,25,25,26,26,27,27,28,28,29,29,30,30],"right_children":[2,4,6,8,10,12,14,16,18,20,22,24,26,28,30,32,34,36,38,40,42,44,46,48,50,52,54,56,58,60,62,-1,-1,-1,-1,-1,-1,-1,-1,-1,-1,-1,-1,-1,-1,-1,-1,-1,-1,-1,-1,-1,-1,-1,-1,-1,-1,-1,-1,-1,-1,-1,-1],"split_conditions":[-9.9735E-1,-1.3500187E0,1.4532461E0,-9.546934E-1,7.31448E-1,-7.5519234E-1,1.4988267E-1,-3.78508E0,-7.4607795E-1,6.559573E-1,8.720305E-1,-1.7278093E0,3.6730775E-1,1.0436279E0,2.960003E-1,-8.822289E-1,-1.3575964E0,-2.4536723E-1,2.5672522E-1,-9.7793996E-1,-4.816411E-1,-1.4076542E0,4.63201E-1,7.576818E-1,3.8804573E-1,5.4777193E-1,8.5642195E-1,2.0834489E-1,4.4220333E0,-3.2859396E-3,3.3816457E0,7.593603E-3,-7.613588E-2,-7.282741E-3,-4.575266E-2,2.5114669E-2,-2.5834827E-2,-5.2373927E-2,-3.0221451E-2,-1.9743878E-2,-5.348103E-3,-4.78995E-2,-1.2367519E-2,-1.0616462E-2,-3.4607697E-2,2.8225545E-2,-3.3612035E-3,-4.4911265E-2,-8.592585E-3,-4.6006567E-3,-6.717473E-2,1.6913923E-2,2.6436E-3,-8.499105E-3,9.997189E-3,-6.690209E-2,-3.6882635E-2,1.970282E-2,-4.496741E-2,-6.0412932E-2,-3.1987743E-3,-6.4622305E-2,6.931024E-3],"split_indices":[32,32,32,11,22,22,22,4,25,21,28,1,1,9,0,23,22,3,28,4,28,4,31,16,21,23,32,21,27,1,23,0,0,0,0,0,0,0,0,0,0,0,0,0,0,0,0,0,0,0,0,0,0,0,0,0,0,0,0,0,0,0,0],"split_type":[0,0,0,0,0,0,0,0,0,0,0,0,0,0,0,0,0,0,0,0,0,0,0,0,0,0,0,0,0,0,0,0,0,0,0,0,0,0,0,0,0,0,0,0,0,0,0,0,0,0,0,0,0,0,0,0,0,0,0,0,0,0,0],"sum_hessian":[4.7046045E3,1.1275702E3,3.5770344E3,3.1844897E2,8.091212E2,3.467953E3,1.090817E2,7.950064E1,2.3894835E2,5.9560846E2,2.1351276E2,3.424635E2,3.1254893E3,7.024353E1,3.883817E1,1.123968E1,6.826096E1,3.9751585E0,2.3497319E2,5.2541437E2,7.019413E1,2.081969E2,5.315866E0,3.6911755E1,3.0555176E2,2.4055996E3,7.198897E2,6.770664E1,2.5368912E0,1.7125038E1,2.171313E1,2.0715854E0,9.168096E0,4.599331E1,2.2267653E1,2.7546246E0,1.220534E0,2.1125597E2,2.371721E1,1.4945149E2,3.7596286E2,3.0179848E1,4.0014282E1,2.7225842E1,1.8097105E2,4.097849E0,1.2180169E0,2.7799192E1,9.112562E0,3.0127347E2,4.2782884E0,2.0559587E3,3.4964078E2,4.351558E2,2.8473392E2,6.2084282E1,5.6223574E0,1.2462326E0,1.2906585E0,2.995759E0,1.4129279E1,1.967971E1,2.033421E0],"tree_param":{"num_deleted":"0","num_feature":"34","num_nodes":"63","size_leaf_vector":"1"}},{"base_weights":[-2.7449725E-3,-8.571191E-2,5.410095E-1,1.1000695E0,-1.19760714E-1,3.582619E-1,9.6072185E-1,1.2307031E0,-3.3380497E-1,3.9169255E-1,-1.8899219E-1,-1.9778456E-1,4.605238E-1,5.440165E-1,1.4466296E0,6.4150083E-1,1.5059872E0,-2.341324E-2,6.9060395E-3,3.0793658E-1,1.3277526E0,-2.3581794E-1,1.0279487E-1,-3.7482852E-1,4.2118397E-1,8.466689E-1,2.7124068E-1,1.2021466E0,9.5837735E-2,7.057259E-1,1.6924843E0,5.330518E-2,-3.798769E-3,-7.931086E-3,8.131944E-2,1.205601E-2,5.2101392E-2,7.37734E-2,-1.7951773E-2,3.589544E-5,-1.4185685E-2,-1.3957359E-2,1.2798007E-2,-2.1555515E-2,2.9553665E-2,-1.258138E-2,4.547876E-2,2.980933E-2,6.0617503E-2,-4.0143025E-3,2.152253E-2,-8.6782157E-4,7.026533E-2,6.931477E-2,-5.7551987E-3,-2.1589227E-2,5.0759453E-2,5.5619728E-2,9.852285E-2],"categories":[],"categories_nodes":[],"categories_segments":[],"categories_sizes":[],"default_left":[0,0,0,0,0,0,0,0,0,0,0,0,0,0,0,0,0,0,0,0,0,0,0,0,0,0,0,0,0,0,0,0,0,0,0,0,0,0,0,0,0,0,0,0,0,0,0,0,0,0,0,0,0,0,0,0,0,0,0],"id":7,"left_children":[1,3,5,7,9,11,13,15,17,19,21,23,25,27,29,31,33,-1,-1,35,37,39,41,43,45,47,49,51,53,55,57,-1,-1,-1,-1,-1,-1,-1,-1,-1,-1,-1,-1,-1,-1,-1,-1,-1,-1,-1,-1,-1,-1,-1,-1,-1,-1,-1,-1],"loss_changes":[1.2577875E2,9.779452E1,2.7965446E1,1.3076317E1,8.3366135E1,1.4802837E1,2.176184E1,9.120102E0,4.728546E-1,2.1604206E1,2.8341553E1,4.638799E0,1.5765202E1,1.8040545E1,8.060806E0,6.6441736E0,8.603661E0,0E0,0E0,1.2453453E1,6.2001877E0,2.0236534E1,1.6878618E1,2.0120754E0,3.3720183E0,5.827572E0,8.335654E0,6.1809196E0,1.0423014E1,5.4984713E0,3.8444595E0,0E0,0E0,0E0,0E0,0E0,0E0,0E0,0E0,0E0,0E0,0E0,0E0,0E0,0E0,0E0,0E0,0E0,0E0,0E0,0E0,0E0,0E0,0E0,0E0,0E0,0E0,0E0,0E0],"parents":[2147483647,0,0,1,1,2,2,3,3,4,4,5,5,6,6,7,7,8,8,9,9,10,10,11,11,12,12,13,13,14,14,15,15,16,16,19,19,20,20,21,21,22,22,23,23,24,24,25,25,26,26,27,27,28,28,29,29,30,30],"right_children":[2,4,6,8,10,12,14,16,18,20,22,24,26,28,30,32,34,-1,-1,36,38,40,42,44,46,48,50,52,54,56,58,-1,-1,-1,-1,-1,-1,-1,-1,-1,-1,-1,-1,-1,-1,-1,-1,-1,-1,-1,-1,-1,-1,-1,-1,-1,-1,-1,-1],"split_conditions":[1.2234198E0,-1.4442033E0,9.932448E-1,7.808701E-1,-7.2861457E-1,-7.2776324E-1,-4.816411E-1,-5.1025903E-1,4.4336802E-1,1.2547598E0,6.2466335E-1,1.5146614E0,-6.1432475E-1,-6.1432475E-1,-3.5464793E-1,6.35381E-3,-1.5404447E0,-2.341324E-2,6.9060395E-3,6.121007E-1,3.5996825E-1,-7.0115554E-1,-6.047022E-1,2.6161728E0,9.6858335E-1,2.7134892E-1,-3.5393742E-1,1.2867193E0,2.3581567E-1,-5.103368E-1,1.3319333E0,5.330518E-2,-3.798769E-3,-7.931086E-3,8.131944E-2,1.205601E-2,5.2101392E-2,7.37734E-2,-1.7951773E-2,3.589544E-5,-1.4185685E-2,-1.3957359E-2,1.2798007E-2,-2.1555515E-2,2.9553665E-2,-1.258138E-2,4.547876E-2,2.980933E-2,6.0617503E-2,-4.0143025E-3,2.152253E-2,-8.6782157E-4,7.026533E-2,6.931477E-2,-5.7551987E-3,-2.1589227E-2,5.0759453E-2,5.5619728E-2,9.852285E-2],"split_indices":[33,33,22,1,29,28,28,30,17,17,0,19,29,29,13,3,12,0,0,21,13,1,28,30,6,30,30,33,1,24,33,0,0,0,0,0,0,0,0,0,0,0,0,0,0,0,0,0,0,0,0,0,0,0,0,0,0,0,0],"split_type":[0,0,0,0,0,0,0,0,0,0,0,0,0,0,0,0,0,0,0,0,0,0,0,0,0,0,0,0,0,0,0,0,0,0,0,0,0,0,0,0,0,0,0,0,0,0,0,0,0,0,0,0,0,0,0,0,0,0,0],"sum_hessian":[2.7860146E3,2.417926E3,3.680887E2,6.661703E1,2.3513088E3,2.5772565E2,1.1036308E2,6.1184486E1,5.432542E0,2.797768E2,2.0715322E3,3.9890106E1,2.1783553E2,6.05533E1,4.9809784E1,2.0543869E1,4.0640617E1,4.233968E0,1.1985738E0,2.5801895E2,2.1757826E1,1.7852314E3,2.8630075E2,3.132471E1,8.565396E0,7.051306E1,1.4732246E2,2.3849339E1,3.670396E1,1.3374645E1,3.643514E1,1.26008005E1,7.9430685E0,2.7198572E0,3.7920757E1,2.3771114E2,2.0307817E1,2.0121065E1,1.6367604E0,3.0078296E2,1.4844485E3,8.1713234E1,2.0458751E2,3.0123148E1,1.2015642E0,3.8064222E0,4.7589736E0,4.3409203E1,2.710386E1,4.6078777E1,1.0124369E2,3.5363498E0,2.0312988E1,4.373948E0,3.2330013E1,2.7758896E0,1.0598756E1,1.3423664E1,2.3011473E1],"tree_param":{"num_deleted":"0","num_feature":"34","num_nodes":"59","size_leaf_vector":"1"}},{"base_weights":[-5.830972E-4,-1.6145627E-1,4.3828708E-1,2.8188774E-1,-2.1692497E-1,1.087003E0,3.0045372E-1,2.0808454E-1,1.3271912E0,6.1299515E-1,-2.4339846E-1,8.043934E-1,1.3248646E0,1.781364E-1,7.331793E-1,-1.0484916E-1,3.2875142E-1,2.487359E-1,1.9697357E0,4.6181297E-1,1.0288745E-1,-3.5301736E-1,-1.0526238E-1,8.744676E-1,-2.2022031E-2,2.253296E-2,1.3868425E0,-2.0030254E-1,2.6192984E-1,-8.4472485E-2,8.5983866E-1,-9.350033E-3,6.431778E-2,1.1775478E-2,3.7967473E-2,-1.4075907E-2,6.476161E-2,2.2904677E-2,1.0994738E-1,5.1136147E-2,1.0717681E-3,-3.7369032E-3,-1.8803766E-2,5.1700505E-3,-9.523666E-3,4.6611484E-2,-2.0397333E-2,3.276442E-2,-2.0217432E-2,7.484206E-2,2.7298668E-2,1.6865619E-2,-1.3842118E-2,1.6910382E-2,-1.2391526E-2,-1.9103996E-2,2.3127722E-2,4.876947E-2,-1.778159E-2],"categories":[],"categories_nodes":[],"categories_segments":[],"categories_sizes":[],"default_left":[0,0,0,0,0,0,0,0,0,0,0,0,0,0,0,0,0,0,0,0,0,0,0,0,0,0,0,0,0,0,0,0,0,0,0,0,0,0,0,0,0,0,0,0,0,0,0,0,0,0,0,0,0,0,0,0,0,0,0],"id":8,"left_children":[1,3,5,7,9,11,13,15,17,19,21,23,25,27,29,31,33,35,37,39,-1,41,43,45,-1,47,49,51,53,55,57,-1,-1,-1,-1,-1,-1,-1,-1,-1,-1,-1,-1,-1,-1,-1,-1,-1,-1,-1,-1,-1,-1,-1,-1,-1,-1,-1,-1],"loss_changes":[1.9885172E2,5.074487E1,6.7225204E1,1.7438421E1,4.0408356E1,7.8081512E0,3.2923046E1,8.178127E0,9.8747635E0,1.1484055E1,2.6862556E1,5.8697777E0,5.6296387E0,1.5533049E1,1.4291733E1,7.1865654E0,6.080076E0,4.0985565E0,2.190174E0,1.3026479E1,0E0,6.324539E0,1.402028E1,4.8143654E0,0E0,1.4001195E0,5.3735046E0,3.758281E0,1.564175E1,3.3230345E0,1.7056366E1,0E0,0E0,0E0,0E0,0E0,0E0,0E0,0E0,0E0,0E0,0E0,0E0,0E0,0E0,0E0,0E0,0E0,0E0,0E0,0E0,0E0,0E0,0E0,0E0,0E0,0E0,0E0,0E0],"parents":[2147483647,0,0,1,1,2,2,3,3,4,4,5,5,6,6,7,7,8,8,9,9,10,10,11,11,12,12,13,13,14,14,15,15,16,16,17,17,18,18,19,19,21,21,22,22,23,23,25,25,26,26,27,27,28,28,29,29,30,30],"right_children":[2,4,6,8,10,12,14,16,18,20,22,24,26,28,30,32,34,36,38,40,-1,42,44,46,-1,48,50,52,54,56,58,-1,-1,-1,-1,-1,-1,-1,-1,-1,-1,-1,-1,-1,-1,-1,-1,-1,-1,-1,-1,-1,-1,-1,-1,-1,-1,-1,-1],"split_conditions":[9.5213604E-1,-7.2776324E-1,-7.2776324E-1,1.0050354E0,-1.4442033E0,1.2324625E0,1.3771472E0,-1.0372777E0,1.2406044E0,7.753875E-1,-5.4896706E-1,1.9147894E0,-1.2288551E0,-6.79784E-1,-6.79784E-1,-6.713882E-2,8.0990446E-1,1.2234563E0,-3.2493824E-1,-2.4219747E-1,1.0288745E-1,-7.6833E-1,4.6382537E-1,2.135896E0,-2.2022031E-2,6.8700486E-1,1.5222406E0,-7.875216E-1,7.6034474E-1,1.2786183E-1,1.444969E0,-9.350033E-3,6.431778E-2,1.1775478E-2,3.7967473E-2,-1.4075907E-2,6.476161E-2,2.2904677E-2,1.0994738E-1,5.1136147E-2,1.0717681E-3,-3.7369032E-3,-1.8803766E-2,5.1700505E-3,-9.523666E-3,4.6611484E-2,-2.0397333E-2,3.276442E-2,-2.0217432E-2,7.484206E-2,2.7298668E-2,1.6865619E-2,-1.3842118E-2,1.6910382E-2,-1.2391526E-2,-1.9103996E-2,2.3127722E-2,4.876947E-2,-1.778159E-2],"split_indices":[33,28,28,0,33,33,33,33,10,0,33,9,12,31,31,27,23,6,17,9,0,0,33,24,0,16,11,24,16,23,10,0,0,0,0,0,0,0,0,0,0,0,0,0,0,0,0,0,0,0,0,0,0,0,0,0,0,0,0],"split_type":[0,0,0,0,0,0,0,0,0,0,0,0,0,0,0,0,0,0,0,0,0,0,0,0,0,0,0,0,0,0,0,0,0,0,0,0,0,0,0,0,0,0,0,0,0,0,0,0,0,0,0,0,0,0,0,0,0,0,0],"sum_hessian":[2.814497E3,2.0600083E3,7.5448883E2,2.2862198E2,1.8313864E3,1.310084E2,6.2348047E2,2.1466473E2,1.3957247E1,5.592835E1,1.775458E3,6.1874947E1,6.913346E1,4.871818E2,1.3629866E2,5.9775608E1,1.5488911E2,5.7288976E0,8.228349E0,5.1824924E1,4.103423E0,9.890413E2,7.864166E2,5.8859165E1,3.015778E0,3.2025387E0,6.5930916E1,8.806421E1,3.9911758E2,1.8326263E1,1.179724E2,5.7259956E1,2.515652E0,1.2859093E2,2.6298191E1,4.2874565E0,1.4414413E0,1.4782064E0,6.7501426E0,2.2211592E1,2.9613335E1,7.6004715E1,9.130366E2,2.279652E2,5.584515E2,5.658361E1,2.2755547E0,1.0746113E0,2.1279275E0,5.7614002E1,8.316917E0,1.0550511E1,7.7513695E1,3.474618E2,5.165579E1,1.20642805E1,6.261982E0,1.0791116E2,1.0061234E1],"tree_param":{"num_deleted":"0","num_feature":"34","num_nodes":"59","size_leaf_vector":"1"}},{"base_weights":[-1.8119323E-3,-5.090159E-1,1.2275411E-1,-7.904933E-1,-3.729646E-1,1.5784386E-1,-1.0422119E0,2.1847002E-1,-8.137638E-1,-2.2548169E-1,-5.828711E-1,3.909674E-2,2.9811108E-1,-1.068078E0,2.1574853E-2,4.3165347E-1,-2.3266427E-2,-5.138767E-1,-8.766388E-1,3.0216245E-2,-2.4349162E-1,-5.312268E-1,-1.1040759E0,1.11616954E-1,-2.56728E-1,-7.981004E-2,3.292683E-1,-9.34298E-1,-1.3250457E0,-2.9396703E-3,2.8122915E-2,-8.3356025E-3,-5.0740995E-2,-4.4502936E-2,-1.9019361E-3,-1.0823849E-2,-4.0499546E-2,-3.21591E-2,-1.428936E-2,-8.104813E-3,-6.286827E-2,-9.157239E-3,8.565183E-3,-3.628178E-3,-1.9993013E-2,-2.129396E-2,2.3810917E-3,1.8395932E-2,1.1681915E-3,-5.722291E-2,-2.1664526E-2,-2.0399382E-2,-6.749745E-2],"categories":[],"categories_nodes":[],"categories_segments":[],"categories_sizes":[],"default_left":[0,0,0,0,0,0,0,0,0,0,0,0,0,0,0,0,0,0,0,0,0,0,0,0,0,0,0,0,0,0,0,0,0,0,0,0,0,0,0,0,0,0,0,0,0,0,0,0,0,0,0,0,0],"id":9,"left_children":[1,3,5,7,9,11,13,15,17,19,21,23,25,27,-1,29,-1,31,33,-1,35,37,39,41,43,45,47,49,51,-1,-1,-1,-1,-1,-1,-1,-1,-1,-1,-1,-1,-1,-1,-1,-1,-1,-1,-1,-1,-1,-1,-1,-1],"loss_changes":[2.977229E2,3.5286057E1,1.5481398E2,7.265152E0,1.9317947E1,6.117389E1,4.682625E0,1.3077843E0,5.1168365E0,5.6860847E0,6.375099E0,4.273049E1,1.9854752E1,2.5135574E0,0E0,4.377104E-1,0E0,9.151126E0,2.6971893E0,0E0,5.3870735E0,6.335167E0,3.029066E0,2.816792E1,1.0308975E1,5.711953E0,1.8387177E1,7.417595E0,2.478981E-1,0E0,0E0,0E0,0E0,0E0,0E0,0E0,0E0,0E0,0E0,0E0,0E0,0E0,0E0,0E0,0E0,0E0,0E0,0E0,0E0,0E0,0E0,0E0,0E0],"parents":[2147483647,0,0,1,1,2,2,3,3,4,4,5,5,6,6,7,7,8,8,9,9,10,10,11,11,12,12,13,13,15,15,17,17,18,18,20,20,21,21,22,22,23,23,24,24,25,25,26,26,27,27,28,28],"right_children":[2,4,6,8,10,12,14,16,18,20,22,24,26,28,-1,30,-1,32,34,-1,36,38,40,42,44,46,48,50,52,-1,-1,-1,-1,-1,-1,-1,-1,-1,-1,-1,-1,-1,-1,-1,-1,-1,-1,-1,-1,-1,-1,-1,-1],"split_conditions":[-1.0877779E0,-1.3590616E0,1.4532461E0,-8.6910343E-1,1.9112293E-1,6.484378E-1,3.3816457E0,9.1256106E-1,-1.1503038E0,-9.784858E-1,8.305415E-1,4.1412845E-1,-7.423835E-1,5.012511E-1,2.1574853E-2,-2.107317E0,-2.3266427E-2,4.276705E-1,2.0415487E0,3.0216245E-2,1.2079034E0,-2.714553E-1,-9.700533E-1,-8.138826E-1,2.3126377E-1,-6.1432475E-1,6.610554E-1,1.4297064E-1,-5.849398E-1,-2.9396703E-3,2.8122915E-2,-8.3356025E-3,-5.0740995E-2,-4.4502936E-2,-1.9019361E-3,-1.0823849E-2,-4.0499546E-2,-3.21591E-2,-1.428936E-2,-8.104813E-3,-6.286827E-2,-9.157239E-3,8.565183E-3,-3.628178E-3,-1.9993013E-2,-2.129396E-2,2.3810917E-3,1.8395932E-2,1.1681915E-3,-5.722291E-2,-2.1664526E-2,-2.0399382E-2,-6.749745E-2],"split_indices":[32,32,32,24,1,32,23,20,11,25,24,1,1,23,0,22,0,30,13,0,11,29,10,22,9,29,1,22,21,0,0,0,0,0,0,0,0,0,0,0,0,0,0,0,0,0,0,0,0,0,0,0,0],"split_type":[0,0,0,0,0,0,0,0,0,0,0,0,0,0,0,0,0,0,0,0,0,0,0,0,0,0,0,0,0,0,0,0,0,0,0,0,0,0,0,0,0,0,0,0,0,0,0,0,0,0,0,0,0],"sum_hessian":[4.7102783E3,9.2811664E2,3.7821616E3,3.008585E2,6.272581E2,3.67241E3,1.0975156E2,6.593395E0,2.9426508E2,3.6962747E2,2.5763068E2,1.9894578E3,1.6829521E3,1.0812895E2,1.6226008E0,5.3074636E0,1.2859317E0,5.259279E1,2.416723E2,7.16033E0,3.6246713E2,2.3624161E2,2.1389065E1,1.598271E3,3.9118683E2,1.2806215E2,1.55489E3,7.4157616E1,3.397134E1,1.2334023E0,4.0740614E0,3.1851675E1,2.0741114E1,2.378054E2,3.8668907E0,3.4728815E2,1.5178997E1,1.6112518E2,7.511643E1,3.2814798E0,1.8107586E1,2.6878964E2,1.3294813E3,1.7173149E2,2.1945535E2,3.383467E1,9.422748E1,1.3802908E3,1.745993E2,5.13382E1,2.2819412E1,1.3576835E0,3.261366E1],"tree_param":{"num_deleted":"0","num_feature":"34","num_nodes":"53","size_leaf_vector":"1"}},{"base_weights":[5.4252595E-3,5.815674E-1,-7.772044E-2,2.9522085E-1,9.5475245E-1,-1.3130294E-1,5.6031305E-1,1.0988386E0,2.2732374E-1,8.3207166E-1,1.9334844E0,3.2884425E-1,-1.7100759E-1,3.460726E-2,8.2854974E-1,2.2210348E-1,1.6353879E0,9.5544934E-2,6.188902E-1,1.0553524E0,5.597773E-1,2.019464E-2,2.0750353E0,1.5942993E0,2.5237775E-1,-2.5060353E-1,-3.6202066E-2,9.132821E-1,-5.053613E-2,4.101425E-1,1.1898453E0,7.216943E-2,-2.3541173E-2,1.1319709E-1,3.9665293E-2,-4.855572E-3,1.1848208E-2,1.3828781E-2,4.724349E-2,4.459908E-2,7.558625E-2,4.666601E-2,1.6127141E-2,1.09455585E-1,3.7531253E-2,1.0176746E-1,3.1696603E-2,2.7619477E-5,3.5994947E-2,-1.40631795E-2,4.696416E-4,-4.2826394E-3,2.1796448E-2,7.750867E-2,-4.22842E-3,-2.169399E-2,5.5487966E-3,7.862838E-2,1.0935762E-2,6.823772E-2,9.5730275E-3],"categories":[],"categories_nodes":[],"categories_segments":[],"categories_sizes":[],"default_left":[0,0,0,0,0,0,0,0,0,0,0,0,0,0,0,0,0,0,0,0,0,0,0,0,0,0,0,0,0,0,0,0,0,0,0,0,0,0,0,0,0,0,0,0,0,0,0,0,0,0,0,0,0,0,0,0,0,0,0,0,0],"id":10,"left_children":[1,3,5,7,9,11,13,15,17,19,21,23,25,27,29,31,33,35,37,39,41,-1,43,45,47,49,51,53,55,57,59,-1,-1,-1,-1,-1,-1,-1,-1,-1,-1,-1,-1,-1,-1,-1,-1,-1,-1,-1,-1,-1,-1,-1,-1,-1,-1,-1,-1,-1,-1],"loss_changes":[1.321576E2,3.6897522E1,8.2497635E1,1.0570957E1,1.647519E1,4.0706406E1,2.6337536E1,6.782007E0,9.441808E0,7.652832E0,2.6305275E0,1.673256E1,2.1975483E1,4.8502426E0,1.822094E1,6.5388722E0,3.108223E0,3.8086274E0,4.8918457E0,4.1219254E0,5.3012886E0,0E0,5.356636E-1,2.9040546E0,1.9799526E1,1.0270569E1,1.7823587E1,3.769528E0,3.7314026E0,1.2756781E1,1.1244446E1,0E0,0E0,0E0,0E0,0E0,0E0,0E0,0E0,0E0,0E0,0E0,0E0,0E0,0E0,0E0,0E0,0E0,0E0,0E0,0E0,0E0,0E0,0E0,0E0,0E0,0E0,0E0,0E0,0E0,0E0],"parents":[2147483647,0,0,1,1,2,2,3,3,4,4,5,5,6,6,7,7,8,8,9,9,10,10,11,11,12,12,13,13,14,14,15,15,16,16,17,17,18,18,19,19,20,20,22,22,23,23,24,24,25,25,26,26,27,27,28,28,29,29,30,30],"right_children":[2,4,6,8,10,12,14,16,18,20,22,24,26,28,30,32,34,36,38,40,42,-1,44,46,48,50,52,54,56,58,60,-1,-1,-1,-1,-1,-1,-1,-1,-1,-1,-1,-1,-1,-1,-1,-1,-1,-1,-1,-1,-1,-1,-1,-1,-1,-1,-1,-1,-1,-1],"split_conditions":[-7.2861457E-1,4.7363818E-1,1.2038121E0,-1.1964267E0,1.8859907E0,-8.430676E-1,-6.047022E-1,-1.1397524E0,3.2603258E-1,-2.810074E-1,8.140029E-1,-1.1214682E0,1.1502734E-1,1.2101575E-2,5.8526975E-1,-1.5251218E0,-2.887496E-1,-5.156767E-1,-3.5393742E-1,-7.568241E-1,-2.9404616E-1,2.019464E-2,4.553669E0,5.3097516E-1,1.12700135E-1,6.796288E-1,1.379151E0,1.3656E0,5.401666E-1,8.6517346E-1,2.9999378E-1,7.216943E-2,-2.3541173E-2,1.1319709E-1,3.9665293E-2,-4.855572E-3,1.1848208E-2,1.3828781E-2,4.724349E-2,4.459908E-2,7.558625E-2,4.666601E-2,1.6127141E-2,1.09455585E-1,3.7531253E-2,1.0176746E-1,3.1696603E-2,2.7619477E-5,3.5994947E-2,-1.40631795E-2,4.696416E-4,-4.2826394E-3,2.1796448E-2,7.750867E-2,-4.22842E-3,-2.169399E-2,5.5487966E-3,7.862838E-2,1.0935762E-2,6.823772E-2,9.5730275E-3],"split_indices":[29,17,22,1,0,31,28,11,1,22,22,20,30,1,17,10,20,5,30,9,20,0,21,17,1,1,5,30,17,0,29,0,0,0,0,0,0,0,0,0,0,0,0,0,0,0,0,0,0,0,0,0,0,0,0,0,0,0,0,0,0],"split_type":[0,0,0,0,0,0,0,0,0,0,0,0,0,0,0,0,0,0,0,0,0,0,0,0,0,0,0,0,0,0,0,0,0,0,0,0,0,0,0,0,0,0,0,0,0,0,0,0,0,0,0,0,0,0,0,0,0,0,0,0,0],"sum_hessian":[2.7568723E3,3.4692535E2,2.409947E3,1.9731543E2,1.4960991E2,2.2239705E3,1.859764E2,1.4189323E1,1.8312611E2,1.3458969E2,1.5020212E1,1.7607785E2,2.0478927E3,6.3214325E1,1.2276207E2,5.923737E0,8.265587E0,1.3794556E2,4.5180553E1,7.237037E1,6.221933E1,1.5986481E0,1.3421564E1,8.902327E0,1.6717552E2,1.2870782E3,7.6081445E2,4.7251062E0,5.848922E1,5.78744E1,6.4887665E1,1.7522904E0,4.171447E0,3.7660186E0,4.4995685E0,5.8527054E1,7.9418495E1,2.2939741E1,2.2240814E1,5.546843E1,1.6901936E1,2.3027185E1,3.9192146E1,1.1756075E1,1.6654898E0,5.333545E0,3.5687814E0,1.09302216E2,5.7873306E1,1.1512368E3,1.358414E2,6.894233E2,7.13912E1,2.5463512E0,2.1787553E0,1.6838121E1,4.16511E1,7.162965E0,5.0711437E1,5.4902264E1,9.985402E0],"tree_param":{"num_deleted":"0","num_feature":"34","num_nodes":"61","size_leaf_vector":"1"}},{"base_weights":[3.4851402E-3,-1.5115434E-1,4.1415942E-1,3.1081247E-1,-2.1069461E-1,1.0216976E0,2.8350753E-1,2.4177322E-1,1.4545689E0,5.8977026E-1,-2.3950478E-1,1.1455157E0,6.036383E-1,-1.8711919E-1,3.8111967E-1,1.23098075E-1,5.8631086E-1,1.8867801E0,4.541856E-2,9.8364845E-2,4.5555586E-1,-3.469444E-1,-1.0289972E-1,1.0234427E0,1.8106972E0,7.09235E-1,-2.1614842E-2,-2.0981525E-1,4.4780914E-2,2.7260104E-1,7.7263E-1,2.1788469E-2,-7.6093385E-3,5.4535163E-3,4.1040424E-2,1.0924793E-2,1.1690941E-1,-1.9723563E-2,3.385737E-2,1.2593341E-2,6.280842E-2,-1.6247738E-3,-1.8790632E-2,6.554806E-3,-9.675673E-3,5.884657E-2,2.6317203E-2,5.8047953E-3,9.771783E-2,-1.2011363E-2,4.210384E-2,-1.2730935E-3,-1.515034E-2,1.7052494E-2,-8.676861E-3,6.020215E-2,2.6832033E-2],"categories":[],"categories_nodes":[],"categories_segments":[],"categories_sizes":[],"default_left":[0,0,0,0,0,0,0,0,0,0,0,0,0,0,0,0,0,0,0,0,0,0,0,0,0,0,0,0,0,0,0,0,0,0,0,0,0,0,0,0,0,0,0,0,0,0,0,0,0,0,0,0,0,0,0,0,0],"id":11,"left_children":[1,3,5,7,9,11,13,15,17,19,21,23,25,27,29,31,33,35,37,-1,39,41,43,45,47,49,-1,51,-1,53,55,-1,-1,-1,-1,-1,-1,-1,-1,-1,-1,-1,-1,-1,-1,-1,-1,-1,-1,-1,-1,-1,-1,-1,-1,-1,-1],"loss_changes":[1.773725E2,5.5874134E1,6.0354294E1,1.7972185E1,4.1604424E1,6.2881317E0,2.9020653E1,8.924941E0,7.83832E0,1.0705557E1,2.544593E1,6.5034637E0,3.908208E0,2.864537E0,2.1977737E1,1.4262746E1,6.1897545E0,6.968605E0,1.4005005E0,0E0,9.220592E0,8.805901E0,1.6262167E1,6.190628E0,3.3414955E0,4.018569E0,0E0,1.8390746E0,0E0,1.259347E1,1.0837479E1,0E0,0E0,0E0,0E0,0E0,0E0,0E0,0E0,0E0,0E0,0E0,0E0,0E0,0E0,0E0,0E0,0E0,0E0,0E0,0E0,0E0,0E0,0E0,0E0,0E0,0E0],"parents":[2147483647,0,0,1,1,2,2,3,3,4,4,5,5,6,6,7,7,8,8,9,9,10,10,11,11,12,12,13,13,14,14,15,15,16,16,17,17,18,18,20,20,21,21,22,22,23,23,24,24,25,25,27,27,29,29,30,30],"right_children":[2,4,6,8,10,12,14,16,18,20,22,24,26,28,30,32,34,36,38,-1,40,42,44,46,48,50,-1,52,-1,54,56,-1,-1,-1,-1,-1,-1,-1,-1,-1,-1,-1,-1,-1,-1,-1,-1,-1,-1,-1,-1,-1,-1,-1,-1,-1,-1],"split_conditions":[9.5213604E-1,-7.2776324E-1,-7.2776324E-1,1.5688685E0,-1.4442033E0,1.4744744E0,-6.79784E-1,3.6482295E-1,7.260663E-1,-1.5404447E0,-5.4896706E-1,1.4404467E0,1.9908863E0,3.4834352E0,1.3861899E0,-1.4726487E-1,1.2780426E-1,-9.37807E-1,1.6138892E0,9.8364845E-2,9.572793E-1,-8.229022E-1,4.547826E-1,-1.5716547E-1,3.3402276E-1,-9.853599E-1,-2.1614842E-2,-2.4473166E-1,4.4780914E-2,7.4773186E-1,-3.5393742E-1,2.1788469E-2,-7.6093385E-3,5.4535163E-3,4.1040424E-2,1.0924793E-2,1.1690941E-1,-1.9723563E-2,3.385737E-2,1.2593341E-2,6.280842E-2,-1.6247738E-3,-1.8790632E-2,6.554806E-3,-9.675673E-3,5.884657E-2,2.6317203E-2,5.8047953E-3,9.771783E-2,-1.2011363E-2,4.210384E-2,-1.2730935E-3,-1.515034E-2,1.7052494E-2,-8.676861E-3,6.020215E-2,2.6832033E-2],"split_indices":[33,28,28,3,33,19,31,0,33,12,33,33,30,19,33,0,5,33,5,0,10,30,33,29,26,12,0,17,0,16,30,0,0,0,0,0,0,0,0,0,0,0,0,0,0,0,0,0,0,0,0,0,0,0,0,0,0],"split_type":[0,0,0,0,0,0,0,0,0,0,0,0,0,0,0,0,0,0,0,0,0,0,0,0,0,0,0,0,0,0,0,0,0,0,0,0,0,0,0,0,0,0,0,0,0,0,0,0,0,0,0,0,0,0,0,0,0],"sum_hessian":[2.790998E3,2.0279899E3,7.6300806E2,2.3105307E2,1.7969369E3,1.3383731E2,6.291707E2,2.1904263E2,1.2010433E1,6.1751637E1,1.7351852E3,1.0191326E2,3.1924055E1,1.0792149E2,5.212492E2,1.6393344E2,5.5109188E1,8.93191E0,3.0785239E0,4.269831E0,5.7481808E1,9.704155E2,7.6476965E2,8.825539E1,1.365788E1,2.9257133E1,2.6669219E0,1.0649538E2,1.4261103E0,4.0945346E2,1.1179579E2,7.6481735E1,8.7451706E1,1.8639639E1,3.646955E1,2.2181706E0,6.7137394E0,2.0362186E0,1.0423051E0,4.6871513E1,1.0610293E1,8.1777374E1,8.886382E2,2.1335832E2,5.514113E2,6.638895E1,2.1866436E1,1.2086632E0,1.2449217E1,3.4917943E0,2.5765339E1,3.6185574E1,7.030981E1,3.551934E2,5.4260048E1,3.8079815E1,7.371597E1],"tree_param":{"num_deleted":"0","num_feature":"34","num_nodes":"57","size_leaf_vector":"1"}},{"base_weights":[4.7475896E-3,-4.8214728E-1,1.24648385E-1,-7.534668E-1,-3.370615E-1,1.6030726E-1,-1.002706E0,2.0355894E-1,-7.736528E-1,-2.2003217E-1,-5.204419E-1,4.4306E-2,2.9052928E-1,-1.0182841E0,2.7547954E-3,2.8102675E-2,-2.4267534E-2,-1.9625938E-1,-8.0391896E-1,-1.9286868E-1,-1.0547338E0,-6.388218E-1,-2.8386799E-1,1.0811579E-1,-3.126918E-1,-5.5843737E-2,3.2092997E-1,-1.1728035E0,-8.9338344E-1,-4.1931722E-2,7.6807165E-3,-4.105152E-2,-1.3385593E-3,-1.4996218E-2,-2.2852996E-3,-6.69189E-2,-1.5682971E-2,-4.0446054E-2,-2.1609318E-2,-2.8314402E-2,-4.1545485E-3,-2.4150198E-2,6.6358517E-3,7.1788556E-3,-1.8724414E-2,-1.7685255E-2,4.643189E-3,1.890979E-2,5.5440837E-3,-4.3884292E-2,-6.305703E-2,-5.7228953E-2,-2.9553568E-2],"categories":[],"categories_nodes":[],"categories_segments":[],"categories_sizes":[],"default_left":[0,0,0,0,0,0,0,0,0,0,0,0,0,0,0,0,0,0,0,0,0,0,0,0,0,0,0,0,0,0,0,0,0,0,0,0,0,0,0,0,0,0,0,0,0,0,0,0,0,0,0,0,0],"id":12,"left_children":[1,3,5,7,9,11,13,15,17,19,21,23,25,27,-1,-1,-1,29,31,33,35,37,39,41,43,45,47,49,51,-1,-1,-1,-1,-1,-1,-1,-1,-1,-1,-1,-1,-1,-1,-1,-1,-1,-1,-1,-1,-1,-1,-1,-1],"loss_changes":[2.75204E2,3.6413757E1,1.5222064E2,6.4117584E0,1.2949699E1,5.5387375E1,1.96949E0,2.1199334E0,5.3865814E0,8.2612705E0,6.4395676E0,4.4245472E1,1.820993E1,1.1616516E0,0E0,0E0,0E0,3.9777305E0,3.982605E0,5.701887E0,2.006465E0,5.160576E0,4.525831E0,2.4018997E1,8.35899E0,6.2450886E0,1.9064133E1,1.4382172E-1,4.4497643E0,0E0,0E0,0E0,0E0,0E0,0E0,0E0,0E0,0E0,0E0,0E0,0E0,0E0,0E0,0E0,0E0,0E0,0E0,0E0,0E0,0E0,0E0,0E0,0E0],"parents":[2147483647,0,0,1,1,2,2,3,3,4,4,5,5,6,6,7,7,8,8,9,9,10,10,11,11,12,12,13,13,17,17,18,18,19,19,20,20,21,21,22,22,23,23,24,24,25,25,26,26,27,27,28,28],"right_children":[2,4,6,8,10,12,14,16,18,20,22,24,26,28,-1,-1,-1,30,32,34,36,38,40,42,44,46,48,50,52,-1,-1,-1,-1,-1,-1,-1,-1,-1,-1,-1,-1,-1,-1,-1,-1,-1,-1,-1,-1,-1,-1,-1,-1],"split_conditions":[-1.0877779E0,-1.3500187E0,1.4532461E0,-7.5844693E-1,4.055682E-1,6.213094E-1,3.3816457E0,5.467366E-1,-6.8549174E-1,2.529702E0,-2.714553E-1,5.5800164E-1,-7.423835E-1,-1.4658949E-1,2.7547954E-3,2.8102675E-2,-2.4267534E-2,-6.5833986E-1,1.9905425E0,-2.2362725E-1,6.9943833E-1,-1.2053342E0,1.4753041E0,-1.5129135E0,-1.2641941E0,-5.000349E-1,4.1154456E-1,-4.110356E-1,5.1330805E-2,-4.1931722E-2,7.6807165E-3,-4.105152E-2,-1.3385593E-3,-1.4996218E-2,-2.2852996E-3,-6.69189E-2,-1.5682971E-2,-4.0446054E-2,-2.1609318E-2,-2.8314402E-2,-4.1545485E-3,-2.4150198E-2,6.6358517E-3,7.1788556E-3,-1.8724414E-2,-1.7685255E-2,4.643189E-3,1.890979E-2,5.5440837E-3,-4.3884292E-2,-6.305703E-2,-5.7228953E-2,-2.9553568E-2],"split_indices":[32,32,32,25,1,32,23,9,23,2,29,22,1,2,0,0,0,13,13,23,23,32,0,1,13,29,0,21,1,0,0,0,0,0,0,0,0,0,0,0,0,0,0,0,0,0,0,0,0,0,0,0,0],"split_type":[0,0,0,0,0,0,0,0,0,0,0,0,0,0,0,0,0,0,0,0,0,0,0,0,0,0,0,0,0,0,0,0,0,0,0,0,0,0,0,0,0,0,0,0,0,0,0,0,0,0,0,0,0],"sum_hessian":[4.7120566E3,9.304897E2,3.7815671E3,3.2274435E2,6.077453E2,3.666453E3,1.1511422E2,6.479199E0,3.1626514E2,3.7233148E2,2.3541383E2,1.9398143E3,1.7266384E3,1.1348038E2,1.6338437E0,4.382681E0,2.0965178E0,1.6125257E1,3.001399E2,3.6178894E2,1.0542543E1,1.5576825E2,7.964559E1,1.6462592E3,2.9355524E2,1.392495E2,1.5873889E3,4.6975388E1,6.650499E1,5.1932974E0,1.093196E1,2.9361847E2,6.521432E0,2.0883255E2,1.5295638E2,7.0414495E0,3.5010943E0,8.3838715E1,7.192953E1,3.233772E1,4.730787E1,6.503206E1,1.581227E3,3.485832E1,2.586969E2,4.5911053E1,9.333844E1,1.2466989E3,3.4069012E2,1.3341044E1,3.3634342E1,3.4801678E1,3.1703312E1],"tree_param":{"num_deleted":"0","num_feature":"34","num_nodes":"53","size_leaf_vector":"1"}},{"base_weights":[3.6221056E-3,3.9994875E-1,-9.858433E-2,2.5681242E-1,7.930791E-1,-1.3598205E-1,9.909074E-1,7.1344364E-1,1.5423304E-1,4.7162893E-1,1.1372745E0,3.458625E-1,-2.0142572E-1,1.0711753E0,-2.7748376E-1,8.9135706E-1,2.7511775E-1,-1.9805482E-1,3.050641E-1,9.879488E-1,6.0035866E-2,1.270219E0,4.6879238E-1,1.0056849E0,2.3428072E-1,-2.516293E-1,3.0343177E-2,9.488411E-1,1.0591853E-1,-2.2143578E-2,1.020878E-2,4.9243446E-2,-6.192002E-3,-3.7753288E-4,5.0179213E-2,-1.157243E-2,6.2116873E-2,1.1661341E-3,3.0932581E-2,1.0294976E-2,6.369107E-2,-1.5761039E-3,8.528205E-2,3.197586E-2,7.040341E-2,5.2769363E-2,4.9499213E-3,7.7349596E-2,2.972844E-2,4.303963E-3,3.7691373E-2,4.7264457E-2,-1.3047883E-2,-1.5905626E-2,7.245616E-3,5.0827302E-2,-2.1729613E-2],"categories":[],"categories_nodes":[],"categories_segments":[],"categories_sizes":[],"default_left":[0,0,0,0,0,0,0,0,0,0,0,0,0,0,0,0,0,0,0,0,0,0,0,0,0,0,0,0,0,0,0,0,0,0,0,0,0,0,0,0,0,0,0,0,0,0,0,0,0,0,0,0,0,0,0,0,0],"id":13,"left_children":[1,3,5,7,9,11,13,15,17,19,21,23,25,27,29,31,33,35,37,39,41,43,45,47,49,51,53,55,-1,-1,-1,-1,-1,-1,-1,-1,-1,-1,-1,-1,-1,-1,-1,-1,-1,-1,-1,-1,-1,-1,-1,-1,-1,-1,-1,-1,-1],"loss_changes":[1.1271137E2,3.1896355E1,9.026489E1,1.9547709E1,1.6257034E1,6.7537506E1,7.783638E0,5.736679E0,1.8337234E1,1.6982738E1,5.855606E0,1.862772E1,2.1933075E1,6.875778E0,5.023217E-1,5.2592163E0,4.8655815E0,5.2766647E0,2.1299223E1,7.6757393E0,6.9372606E0,4.31279E0,2.8513439E0,7.260029E0,1.6909576E1,1.7541206E1,1.3475464E1,6.4286385E0,0E0,0E0,0E0,0E0,0E0,0E0,0E0,0E0,0E0,0E0,0E0,0E0,0E0,0E0,0E0,0E0,0E0,0E0,0E0,0E0,0E0,0E0,0E0,0E0,0E0,0E0,0E0,0E0,0E0],"parents":[2147483647,0,0,1,1,2,2,3,3,4,4,5,5,6,6,7,7,8,8,9,9,10,10,11,11,12,12,13,13,14,14,15,15,16,16,17,17,18,18,19,19,20,20,21,21,22,22,23,23,24,24,25,25,26,26,27,27],"right_children":[2,4,6,8,10,12,14,16,18,20,22,24,26,28,30,32,34,36,38,40,42,44,46,48,50,52,54,56,-1,-1,-1,-1,-1,-1,-1,-1,-1,-1,-1,-1,-1,-1,-1,-1,-1,-1,-1,-1,-1,-1,-1,-1,-1,-1,-1,-1,-1],"split_conditions":[-1.0877779E0,1.1406482E0,1.4532461E0,-7.2861457E-1,-4.816411E-1,-7.2861457E-1,7.808701E-1,4.7836244E-2,-6.047022E-1,-6.1432475E-1,7.141416E-2,-8.133324E-1,4.5751038E-1,6.031556E-1,-2.529204E-1,1.6218787E0,8.8717043E-1,3.8667455E0,1.1502734E-1,6.2138385E-1,2.1286309E0,-6.5833986E-1,8.305715E-1,-4.6819702E-1,5.58992E-1,-1.9839739E0,-6.665806E-1,1.2989615E0,1.0591853E-1,-2.2143578E-2,1.020878E-2,4.9243446E-2,-6.192002E-3,-3.7753288E-4,5.0179213E-2,-1.157243E-2,6.2116873E-2,1.1661341E-3,3.0932581E-2,1.0294976E-2,6.369107E-2,-1.5761039E-3,8.528205E-2,3.197586E-2,7.040341E-2,5.2769363E-2,4.9499213E-3,7.7349596E-2,2.972844E-2,4.303963E-3,3.7691373E-2,4.7264457E-2,-1.3047883E-2,-1.5905626E-2,7.245616E-3,5.0827302E-2,-2.1729613E-2],"split_indices":[32,22,32,29,28,29,1,13,28,29,29,0,1,3,17,19,10,30,30,17,29,13,1,5,1,1,30,10,0,0,0,0,0,0,0,0,0,0,0,0,0,0,0,0,0,0,0,0,0,0,0,0,0,0,0,0,0],"split_type":[0,0,0,0,0,0,0,0,0,0,0,0,0,0,0,0,0,0,0,0,0,0,0,0,0,0,0,0,0,0,0,0,0,0,0,0,0,0,0,0,0,0,0,0,0,0,0,0,0,0,0,0,0,0,0,0,0],"sum_hessian":[2.7805332E3,5.6945197E2,2.2110813E3,4.1867004E2,1.5078194E2,2.1385488E3,7.2532295E1,7.570681E1,3.4296323E2,7.919272E1,7.158922E1,2.5521115E2,1.8833378E3,6.836163E1,4.170665E0,5.311447E1,2.2592337E1,1.0272381E2,2.4023943E2,3.4506275E1,4.4686443E1,5.8962826E1,1.262639E1,3.5756634E1,2.1945453E2,1.54795E3,3.3538782E2,6.2917618E1,5.4440136E0,3.1645722E0,1.0060927E0,4.8661995E1,4.4524794E0,1.69895E1,5.6028366E0,1.0121654E2,1.5072682E0,1.2711123E2,1.131282E2,9.697499E0,2.4808777E1,4.3260376E1,1.42607E0,1.1587188E1,4.7375637E1,4.1652203E0,8.461171E0,1.4241833E1,2.1514801E1,1.7165529E2,4.779924E1,1.1194983E1,1.5367549E3,8.2547516E1,2.528403E2,6.0234936E1,2.682683E0],"tree_param":{"num_deleted":"0","num_feature":"34","num_nodes":"57","size_leaf_vector":"1"}},{"base_weights":[2.3824957E-3,3.7313667E-1,-1.4071721E-1,9.6951306E-1,2.4496518E-1,2.6708886E-1,-1.9574091E-1,1.0540593E0,1.8811159E-1,-1.7156982E-1,3.2967758E-1,4.0232632E-1,-8.88807E-3,-2.2768313E-1,5.9646297E-1,8.6014646E-1,1.4358017E0,-3.1960467E-1,4.5187607E-1,3.401938E-1,-2.2912307E-1,1.1380626E0,2.933675E-1,3.0136654E-1,8.579991E-1,-7.434103E-2,1.1644827E0,-9.845488E-2,-3.3073276E-1,1.7858183E0,4.4989935E-1,5.139445E-2,1.7619526E-2,7.664399E-2,1.2475822E-2,7.378306E-3,-2.3553437E-2,7.324422E-2,3.5155576E-3,-1.1604106E-2,5.544454E-2,-2.3523195E-2,-5.2389833E-3,6.684973E-2,-2.5954144E-4,1.6974691E-2,-1.0521184E-2,8.603722E-3,3.0737692E-2,2.6192239E-2,7.962943E-2,-1.4184268E-2,1.9430727E-2,9.829848E-2,-1.7138261E-2,-9.875181E-3,6.8795974E-3,3.1345487E-3,-1.791934E-2,9.7962014E-2,2.6757373E-2,-1.149656E-2,3.4924615E-2],"categories":[],"categories_nodes":[],"categories_segments":[],"categories_sizes":[],"default_left":[0,0,0,0,0,0,0,0,0,0,0,0,0,0,0,0,0,0,0,0,0,0,0,0,0,0,0,0,0,0,0,0,0,0,0,0,0,0,0,0,0,0,0,0,0,0,0,0,0,0,0,0,0,0,0,0,0,0,0,0,0,0,0],"id":14,"left_children":[1,3,5,7,9,11,13,15,17,19,21,23,25,27,29,31,33,35,37,39,41,43,45,47,49,51,53,55,57,59,61,-1,-1,-1,-1,-1,-1,-1,-1,-1,-1,-1,-1,-1,-1,-1,-1,-1,-1,-1,-1,-1,-1,-1,-1,-1,-1,-1,-1,-1,-1,-1,-1],"loss_changes":[1.4902374E2,5.955419E1,4.5528385E1,8.920959E0,2.2822334E1,9.011808E0,4.533748E1,7.969345E0,2.112237E0,3.3088927E0,1.5413422E1,7.194479E0,6.257965E0,2.2843018E1,1.131316E1,6.8731995E0,4.26902E0,4.6644634E-1,3.795003E0,5.3126774E0,2.927734E0,5.172827E0,1.2033775E1,5.330332E0,6.245634E0,7.5777574E0,5.875207E0,1.7878258E1,1.0415543E1,5.324764E-1,1.0844888E1,0E0,0E0,0E0,0E0,0E0,0E0,0E0,0E0,0E0,0E0,0E0,0E0,0E0,0E0,0E0,0E0,0E0,0E0,0E0,0E0,0E0,0E0,0E0,0E0,0E0,0E0,0E0,0E0,0E0,0E0,0E0,0E0],"parents":[2147483647,0,0,1,1,2,2,3,3,4,4,5,5,6,6,7,7,8,8,9,9,10,10,11,11,12,12,13,13,14,14,15,15,16,16,17,17,18,18,19,19,20,20,21,21,22,22,23,23,24,24,25,25,26,26,27,27,28,28,29,29,30,30],"right_children":[2,4,6,8,10,12,14,16,18,20,22,24,26,28,30,32,34,36,38,40,42,44,46,48,50,52,54,56,58,60,62,-1,-1,-1,-1,-1,-1,-1,-1,-1,-1,-1,-1,-1,-1,-1,-1,-1,-1,-1,-1,-1,-1,-1,-1,-1,-1,-1,-1,-1,-1,-1,-1],"split_conditions":[-9.4309324E-1,-7.2776324E-1,-7.2776324E-1,1.5764806E0,-6.79784E-1,9.287643E-1,1.4532461E0,9.0390867E-1,-1.3048048E0,-8.264947E-1,-2.9557192E0,1.3666173E0,-6.713882E-2,5.5800986E-1,-1.5404447E0,4.276705E-1,-1.0063928E0,-1.2940103E-1,-6.1432475E-1,-9.3791E-1,-3.194644E-1,3.2018764E0,1.5398773E0,8.0571705E-1,5.333015E-1,-1.8993331E-1,-2.1347754E-2,-4.547826E-1,-8.566351E-1,-5.2553093E-1,-6.170715E-1,5.139445E-2,1.7619526E-2,7.664399E-2,1.2475822E-2,7.378306E-3,-2.3553437E-2,7.324422E-2,3.5155576E-3,-1.1604106E-2,5.544454E-2,-2.3523195E-2,-5.2389833E-3,6.684973E-2,-2.5954144E-4,1.6974691E-2,-1.0521184E-2,8.603722E-3,3.0737692E-2,2.6192239E-2,7.962943E-2,-1.4184268E-2,1.9430727E-2,9.829848E-2,-1.7138261E-2,-9.875181E-3,6.8795974E-3,3.1345487E-3,-1.791934E-2,9.7962014E-2,2.6757373E-2,-1.149656E-2,3.4924615E-2],"split_indices":[32,28,28,11,31,32,32,12,32,24,6,19,27,32,12,30,32,24,29,24,24,3,11,3,23,31,2,32,1,9,11,0,0,0,0,0,0,0,0,0,0,0,0,0,0,0,0,0,0,0,0,0,0,0,0,0,0,0,0,0,0,0,0],"split_type":[0,0,0,0,0,0,0,0,0,0,0,0,0,0,0,0,0,0,0,0,0,0,0,0,0,0,0,0,0,0,0,0,0,0,0,0,0,0,0,0,0,0,0,0,0,0,0,0,0,0,0,0,0,0,0,0,0,0,0,0,0,0,0],"sum_hessian":[2.8068743E3,7.8121985E2,2.0256545E3,1.3703549E2,6.441843E2,2.4036258E2,1.785292E3,1.2334126E2,1.3694234E1,1.08695915E2,5.354884E2,1.6100647E2,7.93561E1,1.7167827E3,6.850929E1,8.3950386E1,3.9390877E1,4.609593E0,9.084641E0,1.0491806E1,9.820411E1,2.1714203E1,5.1377423E2,1.3316379E2,2.7842676E1,7.60505E1,3.3056047E0,7.6251483E2,9.542679E2,6.2890906E0,6.22202E1,6.2333485E1,2.16169E1,3.6141148E1,3.249729E0,1.1348952E0,3.474698E0,1.70881E0,7.375831E0,6.414473E0,4.077333E0,3.2445793E1,6.575832E1,1.8351482E1,3.3627193E0,4.7097833E2,4.27959E1,9.5367676E1,3.779612E1,2.0314852E1,7.527826E0,5.263614E1,2.3414358E1,1.9593608E0,1.3462439E0,5.37243E2,2.252718E2,6.2587757E1,8.916801E2,5.025665E0,1.2634258E0,1.6680067E1,4.5540134E1],"tree_param":{"num_deleted":"0","num_feature":"34","num_nodes":"63","size_leaf_vector":"1"}},{"base_weights":[2.8333033E-4,1.4130674E-1,-3.9124522E-1,-9.5902014E-1,1.7947218E-1,-2.742384E-1,-7.0973974E-1,-9.770032E-1,1.948985E-2,2.39359E-1,-2.787606E-2,-2.0643406E-1,-5.5771226E-1,-5.8310074E-1,-8.730175E-1,-1.0663247E0,-7.5666267E-1,-1.2260105E-1,2.789084E-1,1.9875035E-1,-1.07459486E-1,-2.4239783E-1,2.2412546E-1,-6.253496E-1,-4.3828756E-2,3.3794876E-2,-6.187822E-1,1.0467444E-1,-8.9752597E-1,-5.4211117E-2,-1.0147683E-2,-1.7484058E-2,-5.6302316E-2,-3.705296E-2,-1.5156535E-3,1.6064255E-2,-3.4728565E-3,-2.3412127E-2,1.295691E-2,-3.3447053E-3,-3.3160776E-2,6.939733E-3,-1.364954E-2,1.6339151E-2,-2.9897073E-2,-3.3067606E-2,2.1314008E-2,1.8717729E-2,-2.028253E-2,2.2789871E-2,-2.655889E-2,-3.6408834E-2,-2.0268388E-2,-2.2939598E-2,2.4354465E-2,-4.694166E-2,-1.8847119E-2],"categories":[],"categories_nodes":[],"categories_segments":[],"categories_sizes":[],"default_left":[0,0,0,0,0,0,0,0,0,0,0,0,0,0,0,0,0,0,0,0,0,0,0,0,0,0,0,0,0,0,0,0,0,0,0,0,0,0,0,0,0,0,0,0,0,0,0,0,0,0,0,0,0,0,0,0,0],"id":15,"left_children":[1,3,5,7,9,11,13,15,-1,17,19,21,23,25,27,29,31,33,35,37,39,41,43,45,47,49,51,53,55,-1,-1,-1,-1,-1,-1,-1,-1,-1,-1,-1,-1,-1,-1,-1,-1,-1,-1,-1,-1,-1,-1,-1,-1,-1,-1,-1,-1],"loss_changes":[2.587546E2,1.4485815E2,4.6051544E1,3.1861649E0,4.1365463E1,1.7360176E1,6.37204E0,1.4450531E0,0E0,3.703073E1,1.3499435E1,1.1439867E1,6.0519104E0,4.212654E0,3.528946E0,1.0002441E0,5.0854855E0,1.4547002E1,3.442119E1,7.9583974E0,1.2439103E1,7.9572105E0,5.0227365E0,6.1310043E0,3.3926954E0,2.950703E0,3.9088287E0,1.1718359E0,2.6556091E0,0E0,0E0,0E0,0E0,0E0,0E0,0E0,0E0,0E0,0E0,0E0,0E0,0E0,0E0,0E0,0E0,0E0,0E0,0E0,0E0,0E0,0E0,0E0,0E0,0E0,0E0,0E0,0E0],"parents":[2147483647,0,0,1,1,2,2,3,3,4,4,5,5,6,6,7,7,9,9,10,10,11,11,12,12,13,13,14,14,15,15,16,16,17,17,18,18,19,19,20,20,21,21,22,22,23,23,24,24,25,25,26,26,27,27,28,28],"right_children":[2,4,6,8,10,12,14,16,-1,18,20,22,24,26,28,30,32,34,36,38,40,42,44,46,48,50,52,54,56,-1,-1,-1,-1,-1,-1,-1,-1,-1,-1,-1,-1,-1,-1,-1,-1,-1,-1,-1,-1,-1,-1,-1,-1,-1,-1,-1,-1],"split_conditions":[9.7022164E-1,-1.4442033E0,1.3590616E0,3.3816457E0,5.4777193E-1,8.5798234E-1,1.5222987E0,1.4890094E-1,1.948985E-2,-7.441467E-1,-1.0553633E0,7.5715303E-1,1.4971443E0,-8.1898934E-1,-8.2899415E-1,2.594885E0,5.012511E-1,-1.5129135E0,5.1236266E-1,-6.073696E-1,1.7267481E0,-1.0255587E0,7.7852887E-1,2.9124546E0,1.5688685E0,1.8407902E-1,1.22714005E-1,1.3355795E0,1.8345648E0,-5.4211117E-2,-1.0147683E-2,-1.7484058E-2,-5.6302316E-2,-3.705296E-2,-1.5156535E-3,1.6064255E-2,-3.4728565E-3,-2.3412127E-2,1.295691E-2,-3.3447053E-3,-3.3160776E-2,6.939733E-3,-1.364954E-2,1.6339151E-2,-2.9897073E-2,-3.3067606E-2,2.1314008E-2,1.8717729E-2,-2.028253E-2,2.2789871E-2,-2.655889E-2,-3.6408834E-2,-2.0268388E-2,-2.2939598E-2,2.4354465E-2,-4.694166E-2,-1.8847119E-2],"split_indices":[33,33,33,23,23,21,17,22,0,22,33,29,6,24,23,28,23,1,1,9,9,23,2,31,3,12,24,19,30,0,0,0,0,0,0,0,0,0,0,0,0,0,0,0,0,0,0,0,0,0,0,0,0,0,0,0,0],"split_type":[0,0,0,0,0,0,0,0,0,0,0,0,0,0,0,0,0,0,0,0,0,0,0,0,0,0,0,0,0,0,0,0,0,0,0,0,0,0,0,0,0,0,0,0,0,0,0,0,0,0,0,0,0,0,0,0,0],"sum_hessian":[4.6843345E3,3.4443606E3,1.2399741E3,1.1465572E2,3.3297048E3,9.081894E2,3.3178476E2,1.1341923E2,1.2365018E0,2.583405E3,7.462997E2,7.342837E2,1.739057E2,1.8943176E2,1.4235298E2,7.797169E1,3.5447536E1,2.5426321E2,2.3291418E3,1.9357288E2,5.527268E2,6.7808185E2,5.6201805E1,1.5348686E2,2.0418839E1,1.0360602E1,1.7907117E2,3.4012082E0,1.3895177E2,7.613756E1,1.8341302E0,1.7791634E1,1.7655903E1,3.2102413E1,2.221608E2,2.0766118E3,2.5253006E2,1.55098915E1,1.7806299E2,5.1617114E2,3.6555656E1,5.0114273E1,6.279676E2,5.0498207E1,5.703598E0,1.48765E2,4.7218537E0,9.455642E0,1.0963198E1,6.0413194E0,4.319283E0,1.1679235E2,6.2278812E1,1.2943436E0,2.1068645E0,1.27992424E2,1.0959347E1],"tree_param":{"num_deleted":"0","num_feature":"34","num_nodes":"57","size_leaf_vector":"1"}},{"base_weights":[9.413184E-4,3.8363746E-1,-8.6832345E-2,1.9525012E-1,7.643787E-1,-1.2362739E-1,9.4755405E-1,5.948236E-1,8.96013E-2,5.549541E-1,1.1494751E0,2.5313994E-1,-1.781458E-1,1.023602E0,-2.2867618E-2,4.2558086E-1,1.2992251E0,6.4794135E-1,3.4303445E-2,3.8128635E-1,9.628805E-1,6.412004E-1,1.3175733E0,1.1350013E0,1.2979828E-1,-2.339376E-1,4.9705453E-2,1.6831423E0,8.5812217E-1,4.4968944E-2,3.847651E-3,9.145384E-2,1.6693365E-2,4.4158224E-2,-8.697219E-3,-1.7481543E-3,2.4640847E-2,4.2579945E-2,1.01021705E-2,6.808561E-2,2.497903E-2,-2.2144852E-2,4.5301158E-2,8.217086E-2,3.5800185E-2,7.214226E-2,-7.546599E-4,5.4006517E-2,4.173349E-3,1.9828167E-3,-1.44900745E-2,-1.2503304E-2,7.268836E-3,1.531846E-2,9.3530096E-2,3.2418128E-2,7.877248E-2],"categories":[],"categories_nodes":[],"categories_segments":[],"categories_sizes":[],"default_left":[0,0,0,0,0,0,0,0,0,0,0,0,0,0,0,0,0,0,0,0,0,0,0,0,0,0,0,0,0,0,0,0,0,0,0,0,0,0,0,0,0,0,0,0,0,0,0,0,0,0,0,0,0,0,0,0,0],"id":16,"left_children":[1,3,5,7,9,11,13,15,17,19,21,23,25,27,-1,29,31,33,35,37,39,41,43,45,47,49,51,53,55,-1,-1,-1,-1,-1,-1,-1,-1,-1,-1,-1,-1,-1,-1,-1,-1,-1,-1,-1,-1,-1,-1,-1,-1,-1,-1,-1,-1],"loss_changes":[9.246325E1,3.668609E1,8.533821E1,1.4506604E1,1.3043915E1,4.447637E1,8.6979065E0,8.02417E0,8.436182E0,7.5546875E0,4.1812897E0,2.9638945E1,2.4040695E1,6.564621E0,0E0,9.758314E0,6.2691536E0,4.9155693E0,7.9674563E0,6.5792227E0,5.368429E0,5.157839E0,7.302658E0,1.1872738E1,1.053753E1,2.322187E1,1.0723155E1,2.957203E0,8.112358E0,0E0,0E0,0E0,0E0,0E0,0E0,0E0,0E0,0E0,0E0,0E0,0E0,0E0,0E0,0E0,0E0,0E0,0E0,0E0,0E0,0E0,0E0,0E0,0E0,0E0,0E0,0E0,0E0],"parents":[2147483647,0,0,1,1,2,2,3,3,4,4,5,5,6,6,7,7,8,8,9,9,10,10,11,11,12,12,13,13,15,15,16,16,17,17,18,18,19,19,20,20,21,21,22,22,23,23,24,24,25,25,26,26,27,27,28,28],"right_children":[2,4,6,8,10,12,14,16,18,20,22,24,26,28,-1,30,32,34,36,38,40,42,44,46,48,50,52,54,56,-1,-1,-1,-1,-1,-1,-1,-1,-1,-1,-1,-1,-1,-1,-1,-1,-1,-1,-1,-1,-1,-1,-1,-1,-1,-1,-1,-1],"split_conditions":[-1.1329918E0,8.865784E-1,1.4532461E0,-6.79784E-1,1.5222406E0,-8.430676E-1,7.753875E-1,1.9112293E-1,-1.3937478E0,7.909412E-1,6.175768E-1,-5.653043E-1,4.5751038E-1,-2.8737193E-1,-2.2867618E-2,-5.5750054E-1,5.406207E-1,-7.856519E-1,1.6061859E0,1.1149931E0,1.0725824E0,-6.0476524E-1,3.9683015E0,-3.0480108E-1,-1.0244783E0,-7.0115554E-1,-6.665806E-1,-5.1025903E-1,3.6730775E-1,4.4968944E-2,3.847651E-3,9.145384E-2,1.6693365E-2,4.4158224E-2,-8.697219E-3,-1.7481543E-3,2.4640847E-2,4.2579945E-2,1.01021705E-2,6.808561E-2,2.497903E-2,-2.2144852E-2,4.5301158E-2,8.217086E-2,3.5800185E-2,7.214226E-2,-7.546599E-4,5.4006517E-2,4.173349E-3,1.9828167E-3,-1.44900745E-2,-1.2503304E-2,7.268836E-3,1.531846E-2,9.3530096E-2,3.2418128E-2,7.877248E-2],"split_indices":[32,22,32,31,11,31,0,1,12,26,17,3,1,0,0,20,22,2,31,0,12,3,22,2,32,1,30,30,1,0,0,0,0,0,0,0,0,0,0,0,0,0,0,0,0,0,0,0,0,0,0,0,0,0,0,0,0],"split_type":[0,0,0,0,0,0,0,0,0,0,0,0,0,0,0,0,0,0,0,0,0,0,0,0,0,0,0,0,0,0,0,0,0,0,0,0,0,0,0,0,0,0,0,0,0,0,0,0,0,0,0,0,0,0,0,0,0],"sum_hessian":[2.7506575E3,5.1255023E2,2.2381072E3,3.43903E2,1.6864726E2,2.1620786E3,7.602866E1,7.094653E1,2.7295645E2,1.10821144E2,5.7826115E1,2.728457E2,1.8892328E3,7.238201E1,3.6466472E0,5.8496155E1,1.2450383E1,2.3631628E1,2.4932483E2,7.908621E1,3.1734926E1,1.5567984E1,4.2258133E1,3.2472626E1,2.4037308E2,1.5176045E3,3.716283E2,1.2678598E1,5.9703415E1,2.4126963E1,3.436919E1,7.46073E0,4.9896536E0,1.8315256E1,5.316372E0,2.1740564E2,3.19192E1,2.0788507E1,5.8297707E1,1.6011913E1,1.5723014E1,2.9243255E0,1.2643658E1,2.6287476E1,1.5970655E1,2.5415232E1,7.0573945E0,1.0136821E1,2.3023627E2,2.5737885E2,1.2602257E3,8.951928E1,2.8210904E2,1.8351195E0,1.0843479E1,4.7668217E1,1.2035198E1],"tree_param":{"num_deleted":"0","num_feature":"34","num_nodes":"57","size_leaf_vector":"1"}},{"base_weights":[4.91636E-3,3.82268E-1,-1.4410834E-1,8.762414E-1,2.65105E-1,-1.7376451E-1,6.1165434E-1,9.536457E-1,1.0731946E-1,-1.8057065E-1,3.5163975E-1,2.3096994E-1,-2.2993414E-1,4.7521806E-1,8.676059E-2,7.9115397E-1,1.2487593E0,-2.940796E-1,5.419737E-1,-3.125873E-2,-3.44147E-1,7.364802E-1,2.6412922E-1,1.6840991E-1,1.0927199E0,-1.5707804E-1,-4.3267438E-1,3.482209E-1,1.3507562E0,2.214437E-2,5.1951554E-2,7.8813225E-2,4.274261E-2,1.7039321E-2,-2.561455E-2,-1.869413E-2,4.3231633E-2,-1.1134728E-2,1.8114446E-2,-1.95838E-2,1.0925138E-2,-1.2363053E-2,4.048757E-2,2.3053026E-2,2.2844851E-3,-1.4349123E-4,2.08628E-2,1.2813389E-2,7.640379E-2,1.4479791E-2,-9.6835755E-3,-2.249963E-2,1.1545493E-2,2.3429362E-2,-2.6225094E-2,-3.49653E-3,8.923931E-2],"categories":[],"categories_nodes":[],"categories_segments":[],"categories_sizes":[],"default_left":[0,0,0,0,0,0,0,0,0,0,0,0,0,0,0,0,0,0,0,0,0,0,0,0,0,0,0,0,0,0,0,0,0,0,0,0,0,0,0,0,0,0,0,0,0,0,0,0,0,0,0,0,0,0,0,0,0],"id":17,"left_children":[1,3,5,7,9,11,13,15,17,19,21,23,25,27,-1,29,31,33,35,37,39,41,43,45,47,49,51,53,55,-1,-1,-1,-1,-1,-1,-1,-1,-1,-1,-1,-1,-1,-1,-1,-1,-1,-1,-1,-1,-1,-1,-1,-1,-1,-1,-1,-1],"loss_changes":[1.5657327E2,4.5388947E1,4.484348E1,8.866264E0,2.4691208E1,4.3734867E1,1.076264E1,5.5710754E0,2.7604785E0,2.5413072E0,1.7825966E1,1.2466885E1,2.4862076E1,7.1774063E0,0E0,7.390316E0,4.6952057E0,1.3381431E0,2.5424054E0,4.279101E0,1.4163666E0,7.305458E0,1.8799732E1,9.376483E0,5.3257885E0,2.0376211E1,5.2248764E0,6.697208E0,5.2831516E0,0E0,0E0,0E0,0E0,0E0,0E0,0E0,0E0,0E0,0E0,0E0,0E0,0E0,0E0,0E0,0E0,0E0,0E0,0E0,0E0,0E0,0E0,0E0,0E0,0E0,0E0,0E0,0E0],"parents":[2147483647,0,0,1,1,2,2,3,3,4,4,5,5,6,6,7,7,8,8,9,9,10,10,11,11,12,12,13,13,15,15,16,16,17,17,18,18,19,19,20,20,21,21,22,22,23,23,24,24,25,25,26,26,27,27,28,28],"right_children":[2,4,6,8,10,12,14,16,18,20,22,24,26,28,-1,30,32,34,36,38,40,42,44,46,48,50,52,54,56,-1,-1,-1,-1,-1,-1,-1,-1,-1,-1,-1,-1,-1,-1,-1,-1,-1,-1,-1,-1,-1,-1,-1,-1,-1,-1,-1,-1],"split_conditions":[-9.5213604E-1,-7.2776324E-1,1.4532461E0,1.5764806E0,-6.79784E-1,-7.2776324E-1,9.235835E-1,8.6869836E-1,1.7071565E0,-2.3551899E-1,-6.665806E-1,1.3583199E0,1.0101494E0,2.491088E0,8.676059E-2,1.0463778E0,5.260355E-1,5.7502866E-1,7.851885E-1,-6.1432475E-1,-9.883072E-1,-8.609197E-1,-9.161197E-2,6.444616E-1,7.3706996E-1,-8.229022E-1,2.8410072E0,9.785967E-1,-4.287566E-2,2.214437E-2,5.1951554E-2,7.8813225E-2,4.274261E-2,1.7039321E-2,-2.561455E-2,-1.869413E-2,4.3231633E-2,-1.1134728E-2,1.8114446E-2,-1.95838E-2,1.0925138E-2,-1.2363053E-2,4.048757E-2,2.3053026E-2,2.2844851E-3,-1.4349123E-4,2.08628E-2,1.2813389E-2,7.640379E-2,1.4479791E-2,-9.6835755E-3,-2.249963E-2,1.1545493E-2,2.3429362E-2,-2.6225094E-2,-3.49653E-3,8.923931E-2],"split_indices":[32,28,32,11,31,28,1,20,10,28,30,21,32,15,0,6,11,20,16,29,32,23,3,5,0,30,28,23,29,0,0,0,0,0,0,0,0,0,0,0,0,0,0,0,0,0,0,0,0,0,0,0,0,0,0,0,0],"split_type":[0,0,0,0,0,0,0,0,0,0,0,0,0,0,0,0,0,0,0,0,0,0,0,0,0,0,0,0,0,0,0,0,0,0,0,0,0,0,0,0,0,0,0,0,0,0,0,0,0,0,0,0,0,0,0,0,0],"sum_hessian":[2.7823018E3,7.872664E2,1.9950354E3,1.4968744E2,6.37579E2,1.920447E3,7.458837E1,1.3577887E2,1.3908567E1,1.0349046E2,5.3408856E2,2.3366249E2,1.6867845E3,6.778057E1,6.8078003E0,8.993875E1,4.5840122E1,7.3990407E0,6.5095263E0,5.4726974E1,4.876349E1,9.7574486E1,4.3651404E2,2.1896205E2,1.4700446E1,1.242175E3,4.4460938E2,6.0415066E1,7.3655057E0,3.855534E1,5.1383415E1,2.3390772E1,2.2449352E1,1.7489389E0,5.650102E0,1.6545074E0,4.8550186E0,3.710964E1,1.7617338E1,4.524533E1,3.5181596E0,6.599172E0,9.097532E1,2.2897441E2,2.0753963E2,1.3027959E2,8.868246E1,5.5759597E0,9.124487E0,9.3535164E1,1.1486399E3,4.336148E2,1.0994591E1,5.349947E1,6.915595E0,1.9199423E0,5.4455633E0],"tree_param":{"num_deleted":"0","num_feature":"34","num_nodes":"57","size_leaf_vector":"1"}},{"base_weights":[-1.3237512E-3,1.368244E-1,-3.771072E-1,-8.368728E-1,1.7258787E-1,-1.9224615E-1,-5.483604E-1,-1.0394771E0,-7.048821E-1,3.6363688E-1,9.4263636E-2,-1.2759109E-1,-5.8772105E-1,-4.006578E-1,-7.0688516E-1,-1.749963E-2,-5.3399812E-2,-1.0077858E0,-4.1047642E-1,3.8351214E-1,-4.113882E-1,1.640409E-1,-1.00683145E-1,-3.3340275E-1,-5.3971596E-2,-6.857235E-1,2.2820835E-1,-2.5771824E-1,-5.6729305E-1,-4.7851098E-1,-7.912502E-1,-5.2535683E-2,2.6456069E-3,1.7463317E-2,-3.8237873E-2,-5.7448437E-3,2.008593E-2,-5.409279E-3,-5.0885182E-2,-3.2945372E-2,9.1500105E-3,-3.3768706E-3,-2.9394442E-2,-7.342084E-3,-2.945735E-2,-9.206648E-3,6.4338516E-3,-3.589287E-2,2.2855682E-2,-2.1788582E-2,3.0167198E-2,-1.0571388E-2,-4.3284036E-2,2.0929141E-2,-3.0092705E-2,-2.1088407E-3,-3.2662306E-2,-4.4087406E-2,-2.118437E-2],"categories":[],"categories_nodes":[],"categories_segments":[],"categories_sizes":[],"default_left":[0,0,0,0,0,0,0,0,0,0,0,0,0,0,0,0,0,0,0,0,0,0,0,0,0,0,0,0,0,0,0,0,0,0,0,0,0,0,0,0,0,0,0,0,0,0,0,0,0,0,0,0,0,0,0,0,0,0,0],"id":18,"left_children":[1,3,5,7,9,11,13,15,17,19,21,23,25,27,29,-1,-1,31,33,35,37,39,41,43,45,47,49,51,53,55,57,-1,-1,-1,-1,-1,-1,-1,-1,-1,-1,-1,-1,-1,-1,-1,-1,-1,-1,-1,-1,-1,-1,-1,-1,-1,-1,-1,-1],"loss_changes":[2.4508087E2,1.2034971E2,4.0069046E1,2.542282E0,4.980175E1,1.5568422E1,1.5128525E1,5.3473663E-1,6.4763412E0,1.5069077E1,3.216578E1,7.9686575E0,7.008503E0,8.024715E0,5.712906E0,0E0,0E0,1.7583008E0,1.1267274E1,8.615356E0,4.428168E0,2.72821E1,1.0030383E1,6.530202E0,9.281929E0,3.1467323E0,2.7385402E0,5.0651646E0,5.6204987E0,6.668091E0,7.255356E0,0E0,0E0,0E0,0E0,0E0,0E0,0E0,0E0,0E0,0E0,0E0,0E0,0E0,0E0,0E0,0E0,0E0,0E0,0E0,0E0,0E0,0E0,0E0,0E0,0E0,0E0,0E0,0E0],"parents":[2147483647,0,0,1,1,2,2,3,3,4,4,5,5,6,6,7,7,8,8,9,9,10,10,11,11,12,12,13,13,14,14,17,17,18,18,19,19,20,20,21,21,22,22,23,23,24,24,25,25,26,26,27,27,28,28,29,29,30,30],"right_children":[2,4,6,8,10,12,14,16,18,20,22,24,26,28,30,-1,-1,32,34,36,38,40,42,44,46,48,50,52,54,56,58,-1,-1,-1,-1,-1,-1,-1,-1,-1,-1,-1,-1,-1,-1,-1,-1,-1,-1,-1,-1,-1,-1,-1,-1,-1,-1,-1,-1],"split_conditions":[9.7022164E-1,-1.4442033E0,1.2324625E0,-1.7986646E-1,-9.649354E-1,1.1904999E0,9.9788256E-2,-8.229022E-1,3.703542E-2,1.1904328E0,4.3043724E-1,-9.7793996E-1,9.9509156E-1,1.3681043E0,-8.859068E-1,-1.749963E-2,-5.3399812E-2,2.3487632E0,3.2060236E-1,-8.138826E-1,-1.0463206E0,-1.5129135E0,1.7267481E0,-3.5858005E-1,-2.3551899E-1,3.9683015E0,1.0154356E0,2.008482E0,-8.1898934E-1,-4.1936776E-1,1.5421284E0,-5.2535683E-2,2.6456069E-3,1.7463317E-2,-3.8237873E-2,-5.7448437E-3,2.008593E-2,-5.409279E-3,-5.0885182E-2,-3.2945372E-2,9.1500105E-3,-3.3768706E-3,-2.9394442E-2,-7.342084E-3,-2.945735E-2,-9.206648E-3,6.4338516E-3,-3.589287E-2,2.2855682E-2,-2.1788582E-2,3.0167198E-2,-1.0571388E-2,-4.3284036E-2,2.0929141E-2,-3.0092705E-2,-2.1088407E-3,-3.2662306E-2,-4.4087406E-2,-2.118437E-2],"split_indices":[33,33,33,2,33,11,0,30,1,2,23,2,28,33,3,0,0,28,11,22,33,1,9,28,28,22,33,3,24,24,10,0,0,0,0,0,0,0,0,0,0,0,0,0,0,0,0,0,0,0,0,0,0,0,0,0,0,0,0],"split_type":[0,0,0,0,0,0,0,0,0,0,0,0,0,0,0,0,0,0,0,0,0,0,0,0,0,0,0,0,0,0,0,0,0,0,0,0,0,0,0,0,0,0,0,0,0,0,0,0,0,0,0,0,0,0,0,0,0,0,0],"sum_hessian":[4.718927E3,3.4509138E3,1.2680132E3,1.214664E2,3.3294473E3,6.108006E2,6.572126E2,4.520375E1,7.626265E1,9.6702655E2,2.362421E3,5.2611084E2,8.468975E1,3.4204535E2,3.151672E2,2.3226686E0,4.288108E1,3.63945E1,3.986815E1,9.433401E2,2.3686453E1,1.7398391E3,6.2258167E2,1.3768053E2,3.8843033E2,7.575079E1,8.938954E0,1.8548398E2,1.5656137E2,8.681987E1,2.2834734E2,3.4987904E1,1.4065967E0,1.268334E1,2.7184809E1,3.3057888E1,9.102822E2,1.6575771E1,7.1106815E0,3.842015E1,1.701419E3,5.839901E2,3.8591576E1,8.0518105E1,5.7162422E1,2.2679832E2,1.61632E2,7.40408E1,1.7099941E0,3.1687372E0,5.7702174E0,1.7361281E2,1.1871178E1,4.9262276E0,1.5163515E2,2.5181093E1,6.1638775E1,1.821108E2,4.623654E1],"tree_param":{"num_deleted":"0","num_feature":"34","num_nodes":"59","size_leaf_vector":"1"}},{"base_weights":[-4.459671E-3,-4.4400934E-2,7.060653E-1,3.8964465E-1,-1.06834784E-1,4.215549E-1,1.0173197E0,1.0638617E0,2.3518659E-1,-1.3435084E-1,7.648257E-1,1.5592171E0,3.2676414E-1,-2.0755346E-1,1.1307698E0,1.1463293E0,2.3323673E-1,1.7185485E-1,7.974236E-1,-2.1804823E-1,6.348236E-2,1.0487503E0,2.843927E-1,9.3904294E-2,2.0576052E-2,1.474558E0,2.124833E-1,3.4128036E-2,-2.444215E-2,1.2191448E0,1.1540116E-1,2.1269616E-2,6.2327303E-2,-2.2382593E-2,4.4445537E-2,2.6351562E-2,4.308412E-3,5.544526E-2,1.8659013E-3,-1.3626205E-2,3.0837983E-3,-4.1257585E-3,1.5847629E-2,2.9232686E-2,6.4818785E-2,-2.208162E-2,3.2132033E-2,5.993392E-3,8.792632E-2,-1.0845049E-2,2.0746887E-2,4.6697065E-2,7.834105E-2,-2.4350578E-2,5.4016422E-2],"categories":[],"categories_nodes":[],"categories_segments":[],"categories_sizes":[],"default_left":[0,0,0,0,0,0,0,0,0,0,0,0,0,0,0,0,0,0,0,0,0,0,0,0,0,0,0,0,0,0,0,0,0,0,0,0,0,0,0,0,0,0,0,0,0,0,0,0,0,0,0,0,0,0,0],"id":19,"left_children":[1,3,5,7,9,11,13,15,17,19,21,23,25,27,29,31,33,35,37,39,41,43,45,-1,-1,47,49,-1,-1,51,53,-1,-1,-1,-1,-1,-1,-1,-1,-1,-1,-1,-1,-1,-1,-1,-1,-1,-1,-1,-1,-1,-1,-1,-1],"loss_changes":[7.838155E1,7.090127E1,1.2588356E1,3.4015274E1,5.495068E1,7.956441E0,9.891296E0,3.9142761E0,9.441082E0,3.6734184E1,9.267731E0,1.3397837E0,9.358156E0,2.0201442E0,5.580269E0,3.463501E0,3.4198503E0,7.3510633E0,6.3410892E0,2.3766945E1,2.4452822E1,4.264946E0,7.416096E0,0E0,0E0,2.2927885E0,6.020749E0,0E0,0E0,4.3419952E0,4.135522E0,0E0,0E0,0E0,0E0,0E0,0E0,0E0,0E0,0E0,0E0,0E0,0E0,0E0,0E0,0E0,0E0,0E0,0E0,0E0,0E0,0E0,0E0,0E0,0E0],"parents":[2147483647,0,0,1,1,2,2,3,3,4,4,5,5,6,6,7,7,8,8,9,9,10,10,11,11,12,12,13,13,14,14,15,15,16,16,17,17,18,18,19,19,20,20,21,21,22,22,25,25,26,26,29,29,30,30],"right_children":[2,4,6,8,10,12,14,16,18,20,22,24,26,28,30,32,34,36,38,40,42,44,46,-1,-1,48,50,-1,-1,52,54,-1,-1,-1,-1,-1,-1,-1,-1,-1,-1,-1,-1,-1,-1,-1,-1,-1,-1,-1,-1,-1,-1,-1,-1],"split_conditions":[1.7172512E0,-8.430676E-1,-4.816411E-1,-5.5158734E-1,1.4532461E0,-8.430676E-1,-6.1087126E-1,1.4383702E0,6.993675E-1,4.7151276E-1,1.4227483E-1,-3.7262198E-1,2.3581567E-1,2.1537177E-1,4.553669E0,-1.5237793E0,-7.2341174E-1,-8.6170816E-1,2.8997815E-1,4.5751038E-1,2.7134892E-1,-2.5842905E-1,1.875307E-1,9.3904294E-2,2.0576052E-2,-8.3422077E-1,2.187678E0,3.4128036E-2,-2.444215E-2,1.4012372E0,6.264846E-1,2.1269616E-2,6.2327303E-2,-2.2382593E-2,4.4445537E-2,2.6351562E-2,4.308412E-3,5.544526E-2,1.8659013E-3,-1.3626205E-2,3.0837983E-3,-4.1257585E-3,1.5847629E-2,2.9232686E-2,6.4818785E-2,-2.208162E-2,3.2132033E-2,5.993392E-3,8.792632E-2,-1.0845049E-2,2.0746887E-2,4.6697065E-2,7.834105E-2,-2.4350578E-2,5.4016422E-2],"split_indices":[22,31,28,3,32,31,25,23,1,17,22,3,1,9,21,16,2,32,20,1,30,9,21,0,0,5,0,0,0,19,31,0,0,0,0,0,0,0,0,0,0,0,0,0,0,0,0,0,0,0,0,0,0,0,0],"split_type":[0,0,0,0,0,0,0,0,0,0,0,0,0,0,0,0,0,0,0,0,0,0,0,0,0,0,0,0,0,0,0,0,0,0,0,0,0,0,0,0,0,0,0,0,0,0,0,0,0,0,0,0,0,0,0],"sum_hessian":[2.7598257E3,2.61383E3,1.4599565E2,3.2803827E2,2.2857917E3,7.750474E1,6.8490906E1,6.0046158E1,2.679921E2,2.2166633E3,6.912843E1,4.772844E0,7.2731895E1,5.735685E0,6.275522E1,5.4277225E1,5.7689304E0,2.4203442E2,2.5957682E1,1.5575906E3,6.5907275E2,4.27068E1,2.6421637E1,3.2370775E0,1.5357662E0,5.508062E0,6.722383E1,1.034756E0,4.700929E0,5.7545887E1,5.209334E0,7.2642875E0,4.701294E1,2.9856887E0,2.7832417E0,4.604098E1,1.9599344E2,1.8086983E1,7.8706994E0,1.3037191E3,2.5387152E2,4.1862274E2,2.4045004E2,1.6028124E1,2.6678677E1,8.652905E0,1.776873E1,1.2009526E0,4.3071094E0,2.1517067E1,4.5706764E1,3.363822E1,2.3907665E1,3.5120296E0,1.6973045E0],"tree_param":{"num_deleted":"0","num_feature":"34","num_nodes":"55","size_leaf_vector":"1"}},{"base_weights":[1.0020934E-3,3.5118437E-1,-1.443606E-1,9.341872E-1,2.808822E-1,2.1932833E-1,-1.9847623E-1,1.0455916E0,7.72795E-2,-1.5274091E-1,3.634585E-1,1.6631444E-1,1.2617267E0,-2.2520287E-1,4.3649262E-1,1.6153267E-1,1.105311E0,-4.0321746E-1,1.0370011E0,-1.7381687E-1,5.0269242E-2,6.440582E-1,2.6039088E-1,3.3046033E-2,6.353601E-1,8.098734E-2,1.9128528E0,-1.1864371E-1,-3.416714E-1,2.8490564E-1,1.4524039E0,5.6959506E-2,-1.3792514E-2,2.3013165E-2,6.1126854E-2,8.956993E-3,-2.5777522E-2,4.9164896E-3,7.143687E-2,-1.3784165E-2,2.870572E-3,3.505017E-2,-2.634314E-2,-6.919583E-3,1.585695E-2,-1.487076E-4,5.7554405E-2,7.855511E-2,2.7020503E-2,3.589343E-2,-2.1099888E-2,1.12438105E-1,5.3567397E-3,-6.863964E-3,3.6785316E-2,3.1270224E-3,-1.8505001E-2,6.793747E-2,8.572143E-3,7.8581326E-2,2.3441125E-2],"categories":[],"categories_nodes":[],"categories_segments":[],"categories_sizes":[],"default_left":[0,0,0,0,0,0,0,0,0,0,0,0,0,0,0,0,0,0,0,0,0,0,0,0,0,0,0,0,0,0,0,0,0,0,0,0,0,0,0,0,0,0,0,0,0,0,0,0,0,0,0,0,0,0,0,0,0,0,0,0,0],"id":20,"left_children":[1,3,5,7,9,11,13,15,17,19,21,23,25,27,29,31,33,35,37,39,-1,41,43,45,47,49,51,53,55,57,59,-1,-1,-1,-1,-1,-1,-1,-1,-1,-1,-1,-1,-1,-1,-1,-1,-1,-1,-1,-1,-1,-1,-1,-1,-1,-1,-1,-1,-1,-1],"loss_changes":[1.4207855E2,3.3295143E1,3.8862717E1,8.289001E0,2.6268852E1,1.3934191E1,2.9244385E1,3.9135742E0,5.567677E0,3.0504212E0,1.762606E1,1.5275692E1,9.251516E0,2.0421585E1,1.03214655E1,2.912271E0,4.9144363E0,6.262537E-1,1.3324022E0,2.7613425E0,0E0,1.13448105E1,1.0264942E1,7.7204256E0,3.956812E0,2.0305707E0,4.5156803E0,1.3833556E1,9.069107E0,7.3093886E0,2.9594803E-1,0E0,0E0,0E0,0E0,0E0,0E0,0E0,0E0,0E0,0E0,0E0,0E0,0E0,0E0,0E0,0E0,0E0,0E0,0E0,0E0,0E0,0E0,0E0,0E0,0E0,0E0,0E0,0E0,0E0,0E0],"parents":[2147483647,0,0,1,1,2,2,3,3,4,4,5,5,6,6,7,7,8,8,9,9,10,10,11,11,12,12,13,13,14,14,15,15,16,16,17,17,18,18,19,19,21,21,22,22,23,23,24,24,25,25,26,26,27,27,28,28,29,29,30,30],"right_children":[2,4,6,8,10,12,14,16,18,20,22,24,26,28,30,32,34,36,38,40,-1,42,44,46,48,50,52,54,56,58,60,-1,-1,-1,-1,-1,-1,-1,-1,-1,-1,-1,-1,-1,-1,-1,-1,-1,-1,-1,-1,-1,-1,-1,-1,-1,-1,-1,-1,-1,-1],"split_conditions":[-9.4309324E-1,-8.229022E-1,-8.229022E-1,1.5421284E0,-6.79784E-1,9.2071724E-1,1.4532461E0,-8.098276E-1,3.1870925E-1,3.5337727E0,-1.3590616E0,4.8085558E-1,-6.688884E-1,6.484378E-1,7.808701E-1,-9.068732E-1,-2.266893E-1,-7.1815795E-1,-1.3771472E0,2.7390522E-1,5.0269242E-2,1.6776747E0,-7.2861457E-1,1.4803745E0,-7.854843E-1,-9.192541E-1,5.1172376E-1,1.517066E0,-8.566351E-1,-1.5404447E0,1.3238376E0,5.6959506E-2,-1.3792514E-2,2.3013165E-2,6.1126854E-2,8.956993E-3,-2.5777522E-2,4.9164896E-3,7.143687E-2,-1.3784165E-2,2.870572E-3,3.505017E-2,-2.634314E-2,-6.919583E-3,1.585695E-2,-1.487076E-4,5.7554405E-2,7.855511E-2,2.7020503E-2,3.589343E-2,-2.1099888E-2,1.12438105E-1,5.3567397E-3,-6.863964E-3,3.6785316E-2,3.1270224E-3,-1.8505001E-2,6.793747E-2,8.572143E-3,7.8581326E-2,2.3441125E-2],"split_indices":[32,30,30,10,31,5,32,26,26,19,32,2,2,32,1,26,13,24,32,20,0,11,29,32,1,2,11,21,1,12,18,0,0,0,0,0,0,0,0,0,0,0,0,0,0,0,0,0,0,0,0,0,0,0,0,0,0,0,0,0,0],"split_type":[0,0,0,0,0,0,0,0,0,0,0,0,0,0,0,0,0,0,0,0,0,0,0,0,0,0,0,0,0,0,0,0,0,0,0,0,0,0,0,0,0,0,0,0,0,0,0,0,0,0,0,0,0,0,0,0,0,0,0,0,0],"sum_hessian":[2.7891426E3,8.177491E2,1.9713936E3,8.667566E1,7.310734E2,2.5494693E2,1.7164465E3,7.650876E1,1.0166897E1,1.168137E2,6.1425977E2,2.4371188E2,1.1235054E1,1.6477366E3,6.871001E1,5.0756783E0,7.143308E1,7.16134E0,3.005557E0,1.155606E2,1.2530947E0,1.6360345E2,4.5065628E2,1.9062164E2,5.3090244E1,4.39309E0,6.841964E0,8.615278E2,7.862088E2,6.0902954E1,7.807057E0,1.0729079E0,4.0027704E0,1.1742905E1,5.9690178E1,1.0618372E0,6.099503E0,1.2533388E0,1.7522182E0,8.008662E1,3.547399E1,1.5639867E2,7.204785E0,5.5961662E1,3.946946E2,1.8563823E2,4.983404E0,3.4586177E0,4.9631626E1,1.7500081E0,2.6430817E0,5.561945E0,1.2800192E0,8.439582E2,1.7569572E1,5.158262E1,7.3462616E2,4.771247E0,5.6131706E1,6.42982E0,1.3772368E0],"tree_param":{"num_deleted":"0","num_feature":"34","num_nodes":"61","size_leaf_vector":"1"}},{"base_weights":[-1.7435828E-3,-3.4709924E-1,1.3001645E-1,-5.500623E-1,-2.0655589E-1,1.652078E-1,-8.2541436E-1,-4.0277824E-1,-6.933206E-1,-1.4940307E-1,-5.2388245E-1,9.553906E-2,3.5550496E-1,-9.002197E-1,-5.438725E-1,2.9797439E-2,-4.2730978E-1,3.5476178E-1,-7.180588E-1,-1.7524274E-1,2.965688E-1,-6.6215557E-1,-1.5932398E-1,1.4922424E-1,-1.5461196E-1,-3.74479E-1,3.7549922E-1,-3.555387E-1,-9.140068E-1,-2.9586056E-1,-5.5237364E-2,-1.6681058E-2,-3.2799292E-2,-2.068877E-2,3.0997766E-2,-3.8589608E-2,-2.0139484E-2,-2.3421539E-2,-6.867427E-3,2.9948622E-2,1.8460829E-3,-3.5939336E-2,6.6981674E-3,-5.561334E-2,-1.1546161E-3,-6.3636834E-3,1.0551027E-2,-3.0116623E-3,-2.9375544E-2,-6.194975E-2,-6.653253E-3,-3.26654E-3,2.0051716E-2,-3.4295503E-2,5.9494567E-3,-4.184249E-2,-5.580606E-2,2.092108E-2,-3.254528E-2],"categories":[],"categories_nodes":[],"categories_segments":[],"categories_sizes":[],"default_left":[0,0,0,0,0,0,0,0,0,0,0,0,0,0,0,0,0,0,0,0,0,0,0,0,0,0,0,0,0,0,0,0,0,0,0,0,0,0,0,0,0,0,0,0,0,0,0,0,0,0,0,0,0,0,0,0,0,0,0],"id":21,"left_children":[1,3,5,7,9,11,13,15,17,19,21,23,25,27,29,-1,31,33,35,37,39,41,43,45,47,49,51,53,55,57,-1,-1,-1,-1,-1,-1,-1,-1,-1,-1,-1,-1,-1,-1,-1,-1,-1,-1,-1,-1,-1,-1,-1,-1,-1,-1,-1,-1,-1],"loss_changes":[2.1260081E2,3.6690933E1,1.13845146E2,1.0846512E1,1.3776894E1,4.322052E1,2.0441513E0,6.6830826E0,7.149292E0,7.528124E0,5.751751E0,3.2113983E1,1.2896744E1,3.7737274E-1,3.5376263E0,0E0,5.2802086E0,1.6426544E0,4.0955963E0,6.7556973E0,2.796846E0,3.8801079E0,4.2933655E0,3.3651283E1,1.7235146E1,4.802493E0,9.607597E0,7.001585E-1,4.7853088E-1,5.50393E0,0E0,0E0,0E0,0E0,0E0,0E0,0E0,0E0,0E0,0E0,0E0,0E0,0E0,0E0,0E0,0E0,0E0,0E0,0E0,0E0,0E0,0E0,0E0,0E0,0E0,0E0,0E0,0E0,0E0],"parents":[2147483647,0,0,1,1,2,2,3,3,4,4,5,5,6,6,7,7,8,8,9,9,10,10,11,11,12,12,13,13,14,14,16,16,17,17,18,18,19,19,20,20,21,21,22,22,23,23,24,24,25,25,26,26,27,27,28,28,29,29],"right_children":[2,4,6,8,10,12,14,16,18,20,22,24,26,28,30,-1,32,34,36,38,40,42,44,46,48,50,52,54,56,58,-1,-1,-1,-1,-1,-1,-1,-1,-1,-1,-1,-1,-1,-1,-1,-1,-1,-1,-1,-1,-1,-1,-1,-1,-1,-1,-1,-1,-1],"split_conditions":[-9.5213604E-1,-1.2776765E0,1.4532461E0,7.738696E-2,1.1904999E0,1.0101494E0,2.0672703E-1,-7.846029E-1,-5.195625E-1,1.5905312E0,-1.12457946E-1,4.2347002E-1,-1.0353458E0,-2.2109625E0,4.0717047E-1,2.9797439E-2,1.0463778E0,-1.2780118E0,1.5421284E0,-1.4600655E0,-5.098971E-1,-1.0063928E0,7.511168E-3,-6.916457E-1,5.790004E-1,-5.435587E-1,-7.2893316E-1,-2.9437438E-1,4.276705E-1,4.477129E-1,-5.5237364E-2,-1.6681058E-2,-3.2799292E-2,-2.068877E-2,3.0997766E-2,-3.8589608E-2,-2.0139484E-2,-2.3421539E-2,-6.867427E-3,2.9948622E-2,1.8460829E-3,-3.5939336E-2,6.6981674E-3,-5.561334E-2,-1.1546161E-3,-6.3636834E-3,1.0551027E-2,-3.0116623E-3,-2.9375544E-2,-6.194975E-2,-6.653253E-3,-3.26654E-3,2.0051716E-2,-3.4295503E-2,5.9494567E-3,-4.184249E-2,-5.580606E-2,2.092108E-2,-3.254528E-2],"split_indices":[32,32,32,0,11,32,21,26,23,18,28,1,5,23,5,0,6,12,10,0,10,32,2,1,13,2,0,0,30,11,0,0,0,0,0,0,0,0,0,0,0,0,0,0,0,0,0,0,0,0,0,0,0,0,0,0,0,0,0],"split_type":[0,0,0,0,0,0,0,0,0,0,0,0,0,0,0,0,0,0,0,0,0,0,0,0,0,0,0,0,0,0,0,0,0,0,0,0,0,0,0,0,0,0,0,0,0,0,0,0,0,0,0,0,0,0,0,0,0,0,0],"sum_hessian":[4.6701353E3,1.289251E3,3.3808845E3,5.262962E2,7.629547E2,3.261578E3,1.1930651E2,2.6138126E2,2.6491498E2,6.477594E2,1.1519534E2,2.388601E3,8.729768E2,9.252523E1,2.6781284E1,5.7079144E0,2.5567332E2,5.801065E0,2.5911392E2,6.1285736E2,3.490198E1,8.292606E1,3.226928E1,1.9668885E3,4.2171255E2,2.280073E1,8.501761E2,2.9455328E0,8.95797E1,1.9629057E1,7.1522274E0,1.8311147E2,7.256187E1,1.3444729E0,4.4565926E0,2.2014511E2,3.8968807E1,6.884456E1,5.440128E2,1.5519726E1,1.9382254E1,7.750963E1,5.4164343E0,3.1400502E0,2.912923E1,3.5909854E2,1.60779E3,3.4716443E2,7.454813E1,4.0751524E0,1.8725578E1,4.6464725E1,8.0371136E2,1.4739177E0,1.4716152E0,6.8550896E1,2.10288E1,6.458101E0,1.3170956E1],"tree_param":{"num_deleted":"0","num_feature":"34","num_nodes":"59","size_leaf_vector":"1"}},{"base_weights":[2.3374113E-3,3.9786968E-1,-6.815838E-2,2.6754156E-1,6.8069845E-1,-1.01105906E-1,7.941823E-1,-6.061727E-2,3.2869247E-1,1.126887E0,5.6025785E-1,-1.556281E-1,1.6020386E-1,8.6153275E-1,-2.3427878E-2,-2.5693873E-1,4.6820155E-1,2.4861522E-1,5.740981E-1,1.416845E0,5.968858E-1,2.2705606E-1,6.8815255E-1,1.7374456E-1,-1.9115548E-1,1.2960303E-1,9.2092913E-1,-2.2458626E-2,9.1489697E-1,1.3766095E-2,-1.7144164E-2,7.130352E-2,3.0695167E-3,9.410775E-3,3.5045605E-2,7.122059E-2,2.2765482E-2,2.6162972E-3,7.715952E-2,-6.713693E-3,4.0420454E-2,-2.6146358E-2,2.2124516E-2,4.977548E-2,2.4406713E-2,1.7276557E-2,-2.3288995E-3,-9.968764E-3,6.527612E-2,1.6938256E-2,3.403072E-3,2.1182567E-2,8.4695585E-2,4.6871297E-2,-1.6239608E-2],"categories":[],"categories_nodes":[],"categories_segments":[],"categories_sizes":[],"default_left":[0,0,0,0,0,0,0,0,0,0,0,0,0,0,0,0,0,0,0,0,0,0,0,0,0,0,0,0,0,0,0,0,0,0,0,0,0,0,0,0,0,0,0,0,0,0,0,0,0,0,0,0,0,0,0],"id":22,"left_children":[1,3,5,7,9,11,13,15,17,19,21,23,25,27,-1,29,31,33,35,37,39,41,43,45,47,49,51,-1,53,-1,-1,-1,-1,-1,-1,-1,-1,-1,-1,-1,-1,-1,-1,-1,-1,-1,-1,-1,-1,-1,-1,-1,-1,-1,-1],"loss_changes":[7.641254E1,1.5098167E1,6.616429E1,5.747612E0,6.3610916E0,3.1955858E1,7.6929016E0,4.86247E0,4.5883026E0,3.2526817E0,4.2948265E0,2.1737808E1,8.898715E0,6.12693E0,0E0,1.6477478E0,4.869418E0,4.8750706E0,5.2569904E0,2.7655792E0,1.8343124E0,5.153456E0,4.123955E0,6.870921E0,2.0863129E1,4.7856865E0,4.9777822E0,0E0,2.5067596E0,0E0,0E0,0E0,0E0,0E0,0E0,0E0,0E0,0E0,0E0,0E0,0E0,0E0,0E0,0E0,0E0,0E0,0E0,0E0,0E0,0E0,0E0,0E0,0E0,0E0,0E0],"parents":[2147483647,0,0,1,1,2,2,3,3,4,4,5,5,6,6,7,7,8,8,9,9,10,10,11,11,12,12,13,13,15,15,16,16,17,17,18,18,19,19,20,20,21,21,22,22,23,23,24,24,25,25,26,26,28,28],"right_children":[2,4,6,8,10,12,14,16,18,20,22,24,26,28,-1,30,32,34,36,38,40,42,44,46,48,50,52,-1,54,-1,-1,-1,-1,-1,-1,-1,-1,-1,-1,-1,-1,-1,-1,-1,-1,-1,-1,-1,-1,-1,-1,-1,-1,-1,-1],"split_conditions":[-1.2143769E0,9.932448E-1,1.4532461E0,-1.4859185E0,1.185362E0,5.58992E-1,9.235835E-1,7.1415263E-1,1.4749825E0,1.5791476E0,1.8859907E0,-9.5021814E-1,3.638307E0,-1.5404447E0,-2.3427878E-2,-2.874314E0,8.504644E-1,7.544741E-1,-1.4489888E0,-7.8386545E-1,2.6913565E-1,5.275547E-1,2.3984046E0,5.5505253E-2,2.2788877E0,-7.291845E-1,1.5354486E0,-2.2458626E-2,1.7032406E0,1.3766095E-2,-1.7144164E-2,7.130352E-2,3.0695167E-3,9.410775E-3,3.5045605E-2,7.122059E-2,2.2765482E-2,2.6162972E-3,7.715952E-2,-6.713693E-3,4.0420454E-2,-2.6146358E-2,2.2124516E-2,4.977548E-2,2.4406713E-2,1.7276557E-2,-2.3288995E-3,-9.968764E-3,6.527612E-2,1.6938256E-2,3.403072E-3,2.1182567E-2,8.4695585E-2,4.6871297E-2,-1.6239608E-2],"split_indices":[32,22,32,6,0,1,1,11,18,16,0,22,1,12,0,22,11,1,12,25,24,17,1,6,2,16,18,0,11,0,0,0,0,0,0,0,0,0,0,0,0,0,0,0,0,0,0,0,0,0,0,0,0,0,0],"split_type":[0,0,0,0,0,0,0,0,0,0,0,0,0,0,0,0,0,0,0,0,0,0,0,0,0,0,0,0,0,0,0,0,0,0,0,0,0,0,0,0,0,0,0,0,0,0,0,0,0,0,0,0,0,0,0],"sum_hessian":[2.7384626E3,4.1354318E2,2.3249194E3,2.8442532E2,1.2911786E2,2.2402102E3,8.4709145E1,4.467753E1,2.3974779E2,2.5668612E1,1.0344924E2,1.8538165E3,3.863937E2,8.072145E1,3.9876912E0,3.2956657E1,1.1720873E1,1.8228142E2,5.746638E1,1.5509981E1,1.0158631E1,2.9463594E1,7.398565E1,1.8011244E2,1.6737041E3,3.7257684E2,1.381686E1,2.8677635E0,7.785369E1,4.2753906E0,2.8681265E1,2.747108E0,8.973765E0,1.6205652E2,2.0224895E1,5.696737E0,5.1769646E1,1.4342577E0,1.4075724E1,2.3613844E0,7.797247E0,6.2563343E0,2.320726E1,2.7598883E1,4.6386765E1,1.00884224E2,7.9228226E1,1.6654243E3,8.27976E0,8.367728E1,2.8889957E2,9.349915E0,4.466945E0,7.6703575E1,1.1501179E0],"tree_param":{"num_deleted":"0","num_feature":"34","num_nodes":"55","size_leaf_vector":"1"}},{"base_weights":[9.6091384E-4,3.1395102E-1,-1.332088E-1,7.823616E-1,2.0019785E-1,2.3540094E-1,-1.8384717E-1,8.4856945E-1,1.1713952E-1,-7.639616E-2,3.0290943E-1,1.8642204E-1,1.1681052E0,-2.1295647E-1,4.749319E-1,6.4304924E-1,1.0038127E0,-2.0362434E-1,7.554694E-1,1.2385193E-1,-2.1297628E-1,5.6769747E-1,1.2571876E-1,3.0589715E-1,-7.65849E-2,1.3408432E0,-1.50720095E-2,-9.06252E-2,-3.1574595E-1,3.254145E-1,1.3890836E0,4.1664504E-2,2.495976E-3,6.563302E-2,3.9342385E-2,-2.6056305E-2,1.4174962E-2,-2.3268007E-3,5.8176965E-2,3.54166E-2,2.298092E-3,-1.3848081E-2,1.2540367E-2,3.1783186E-2,-8.393993E-4,1.1391159E-2,-8.763364E-3,9.023841E-3,3.1465672E-2,-7.7382773E-3,6.4774565E-2,8.83254E-2,3.0609926E-2,1.8607778E-2,-6.6202916E-3,-2.0986777E-3,-1.7368522E-2,3.392734E-2,6.161908E-4,7.5490795E-2,2.064395E-2],"categories":[],"categories_nodes":[],"categories_segments":[],"categories_sizes":[],"default_left":[0,0,0,0,0,0,0,0,0,0,0,0,0,0,0,0,0,0,0,0,0,0,0,0,0,0,0,0,0,0,0,0,0,0,0,0,0,0,0,0,0,0,0,0,0,0,0,0,0,0,0,0,0,0,0,0,0,0,0,0,0],"id":23,"left_children":[1,3,5,7,9,11,13,15,17,19,21,23,25,27,29,31,33,35,37,39,41,43,45,47,49,51,-1,53,55,57,59,-1,-1,-1,-1,-1,-1,-1,-1,-1,-1,-1,-1,-1,-1,-1,-1,-1,-1,-1,-1,-1,-1,-1,-1,-1,-1,-1,-1,-1,-1],"loss_changes":[1.174048E2,4.4540764E1,3.657046E1,7.104599E0,1.9236334E1,1.0599975E1,3.3106056E1,4.0957413E0,3.4229312E0,5.056901E0,2.307631E1,7.1305094E0,3.3550854E0,2.0706047E1,9.545052E0,7.487892E0,4.520401E0,1.9130543E0,1.8711965E0,3.3916078E0,3.3253636E0,7.8566895E0,9.162967E0,6.203141E0,7.864916E0,2.2017574E0,0E0,1.4634143E1,7.739868E0,7.0859833E0,5.5231667E-1,0E0,0E0,0E0,0E0,0E0,0E0,0E0,0E0,0E0,0E0,0E0,0E0,0E0,0E0,0E0,0E0,0E0,0E0,0E0,0E0,0E0,0E0,0E0,0E0,0E0,0E0,0E0,0E0,0E0,0E0],"parents":[2147483647,0,0,1,1,2,2,3,3,4,4,5,5,6,6,7,7,8,8,9,9,10,10,11,11,12,12,13,13,14,14,15,15,16,16,17,17,18,18,19,19,20,20,21,21,22,22,23,23,24,24,25,25,27,27,28,28,29,29,30,30],"right_children":[2,4,6,8,10,12,14,16,18,20,22,24,26,28,30,32,34,36,38,40,42,44,46,48,50,52,-1,54,56,58,60,-1,-1,-1,-1,-1,-1,-1,-1,-1,-1,-1,-1,-1,-1,-1,-1,-1,-1,-1,-1,-1,-1,-1,-1,-1,-1,-1,-1,-1,-1],"split_conditions":[-9.4309324E-1,-7.2776324E-1,-7.2776324E-1,1.5764806E0,-6.1432475E-1,1.3088268E0,1.4532461E0,-6.934176E-2,3.441593E-1,-1.3048048E0,-4.1700542E-1,9.739782E-1,2.2138748E0,5.5800986E-1,7.808701E-1,-2.733039E-1,3.2060236E-1,1.4872006E0,-1.3861899E0,-2.9557192E0,1.8345648E0,1.5222406E0,5.6016004E-1,8.0571705E-1,1.4713316E0,8.267921E-1,-1.50720095E-2,-8.229022E-1,-6.6837907E-1,-2.4219747E-1,1.3379304E0,4.1664504E-2,2.495976E-3,6.563302E-2,3.9342385E-2,-2.6056305E-2,1.4174962E-2,-2.3268007E-3,5.8176965E-2,3.54166E-2,2.298092E-3,-1.3848081E-2,1.2540367E-2,3.1783186E-2,-8.393993E-4,1.1391159E-2,-8.763364E-3,9.023841E-3,3.1465672E-2,-7.7382773E-3,6.4774565E-2,8.83254E-2,3.0609926E-2,1.8607778E-2,-6.6202916E-3,-2.0986777E-3,-1.7368522E-2,3.392734E-2,6.161908E-4,7.5490795E-2,2.064395E-2],"split_indices":[32,28,28,11,29,22,32,10,24,32,6,32,16,32,1,12,11,16,32,6,30,11,3,3,32,23,0,30,22,9,19,0,0,0,0,0,0,0,0,0,0,0,0,0,0,0,0,0,0,0,0,0,0,0,0,0,0,0,0,0,0],"split_type":[0,0,0,0,0,0,0,0,0,0,0,0,0,0,0,0,0,0,0,0,0,0,0,0,0,0,0,0,0,0,0,0,0,0,0,0,0,0,0,0,0,0,0,0,0,0,0,0,0,0,0,0,0,0,0,0,0,0,0,0,0],"sum_hessian":[2.7937695E3,8.378648E2,1.9559048E3,1.6256793E2,6.752969E2,2.3580087E2,1.7201039E3,1.4760188E2,1.4966052E1,1.8293198E2,4.9236493E2,2.2517612E2,1.0624754E1,1.6479625E3,7.214135E1,6.572862E1,8.187326E1,1.04139805E1,4.5520716E0,7.421469E1,1.0871729E2,1.9650711E2,2.958578E2,1.547262E2,7.044992E1,9.585593E0,1.03916E0,7.53314E2,8.9464844E2,6.316598E1,8.975366E0,4.945991E1,1.626871E1,3.1699385E1,5.0173878E1,6.262409E0,4.1515713E0,1.8338505E0,2.718221E0,7.7753315E0,6.643936E1,9.589067E1,1.2826621E1,1.7595844E2,2.0548681E1,2.2109732E2,7.4760475E1,1.1261306E2,4.2113132E1,6.749147E1,2.958448E0,5.151675E0,4.433918E0,6.172404E1,6.9159E2,9.288365E1,8.0176483E2,2.9136229E1,3.402975E1,7.501053E0,1.474313E0],"tree_param":{"num_deleted":"0","num_feature":"34","num_nodes":"61","size_leaf_vector":"1"}},{"base_weights":[-1.8860718E-3,-3.475829E-1,1.1684137E-1,-5.460629E-1,-2.1065341E-1,1.5040168E-1,-7.649929E-1,-2.6761955E-1,-6.3473564E-1,-1.5256703E-1,-5.170021E-1,2.1271847E-1,-6.596181E-2,-7.8041357E-1,2.0645382E-2,1.2330464E-1,-4.095533E-1,3.811302E-1,-6.4744675E-1,2.0548894E-1,-1.8474098E-1,-5.9457886E-1,5.064928E-1,1.3936198E-1,3.8450602E-1,-2.0232742E-1,1.0513278E-1,-6.766591E-1,-5.0415225E-2,1.1633833E-2,-3.9266896E-2,-1.4370905E-2,-4.6445027E-2,-2.847187E-3,2.6643056E-2,-3.329292E-2,-3.903377E-3,-2.9213462E-2,1.6972767E-2,-1.5069606E-3,-1.1898112E-2,-1.4445121E-2,-3.452299E-2,3.0833835E-2,-4.9553774E-3,8.050888E-3,-1.823076E-2,-8.737692E-3,2.0662619E-2,-3.775455E-3,-2.2985859E-2,-6.32978E-2,6.605699E-3,-3.9185923E-2,-1.51172085E-2],"categories":[],"categories_nodes":[],"categories_segments":[],"categories_sizes":[],"default_left":[0,0,0,0,0,0,0,0,0,0,0,0,0,0,0,0,0,0,0,0,0,0,0,0,0,0,0,0,0,0,0,0,0,0,0,0,0,0,0,0,0,0,0,0,0,0,0,0,0,0,0,0,0,0,0],"id":24,"left_children":[1,3,5,7,9,11,13,15,17,19,21,23,25,27,-1,29,31,33,35,37,39,41,43,45,47,49,51,53,-1,-1,-1,-1,-1,-1,-1,-1,-1,-1,-1,-1,-1,-1,-1,-1,-1,-1,-1,-1,-1,-1,-1,-1,-1,-1,-1],"loss_changes":[1.9093976E2,3.2207077E1,1.025964E2,1.1802277E1,1.2473349E1,4.500325E1,2.6312485E0,6.644888E0,4.986313E0,6.8852577E0,9.194836E0,3.2595184E1,1.7447496E1,2.2927551E0,0E0,3.4051926E0,5.278343E0,3.7368262E-1,3.752121E0,5.4332886E0,4.4845543E0,2.865612E0,6.2375474E-1,1.9890724E1,1.2526878E1,1.3543421E1,1.2446359E1,3.3496437E0,0E0,0E0,0E0,0E0,0E0,0E0,0E0,0E0,0E0,0E0,0E0,0E0,0E0,0E0,0E0,0E0,0E0,0E0,0E0,0E0,0E0,0E0,0E0,0E0,0E0,0E0,0E0],"parents":[2147483647,0,0,1,1,2,2,3,3,4,4,5,5,6,6,7,7,8,8,9,9,10,10,11,11,12,12,13,13,15,15,16,16,17,17,18,18,19,19,20,20,21,21,22,22,23,23,24,24,25,25,26,26,27,27],"right_children":[2,4,6,8,10,12,14,16,18,20,22,24,26,28,-1,30,32,34,36,38,40,42,44,46,48,50,52,54,-1,-1,-1,-1,-1,-1,-1,-1,-1,-1,-1,-1,-1,-1,-1,-1,-1,-1,-1,-1,-1,-1,-1,-1,-1,-1,-1],"split_conditions":[-9.9735E-1,-1.2957621E0,1.4532461E0,-9.691116E-1,1.1904999E0,5.4777193E-1,3.3816457E0,-3.4165025E-1,-7.686176E-1,-1.0140467E0,9.9509156E-1,9.37807E-1,6.8460894E-1,5.012511E-1,2.0645382E-2,3.1435028E-1,-9.5021814E-1,-1.0710996E0,1.9363521E0,-6.9996804E-1,-2.9278246E-1,4.620186E-1,-1.0244783E0,1.1567502E0,-8.566351E-1,7.02371E-1,-1.2275337E0,1.4988267E-1,-5.0415225E-2,1.1633833E-2,-3.9266896E-2,-1.4370905E-2,-4.6445027E-2,-2.847187E-3,2.6643056E-2,-3.329292E-2,-3.903377E-3,-2.9213462E-2,1.6972767E-2,-1.5069606E-3,-1.1898112E-2,-1.4445121E-2,-3.452299E-2,3.0833835E-2,-4.9553774E-3,8.050888E-3,-1.823076E-2,-8.737692E-3,2.0662619E-2,-3.775455E-3,-2.2985859E-2,-6.32978E-2,6.605699E-3,-3.9185923E-2,-1.51172085E-2],"split_indices":[32,32,32,11,11,23,23,26,26,23,28,32,32,23,0,20,22,24,13,25,17,17,32,20,1,12,22,22,0,0,0,0,0,0,0,0,0,0,0,0,0,0,0,0,0,0,0,0,0,0,0,0,0,0,0],"split_type":[0,0,0,0,0,0,0,0,0,0,0,0,0,0,0,0,0,0,0,0,0,0,0,0,0,0,0,0,0,0,0,0,0,0,0,0,0,0,0,0,0,0,0,0,0,0,0,0,0,0,0,0,0,0,0],"sum_hessian":[4.650119E3,1.1882839E3,3.4618354E3,4.8389212E2,7.043918E2,3.3357163E3,1.26119225E2,1.1784921E2,3.660429E2,5.933798E2,1.11011955E2,2.5898167E3,7.4589954E2,1.2482254E2,1.2966863E0,3.1425652E1,8.642356E1,4.1653786E0,3.6187753E2,4.8479233E1,5.449006E2,1.0358007E2,7.43188E0,1.8161134E3,7.7370325E2,4.1497452E2,3.3092505E2,8.8499565E1,3.632298E1,2.871339E1,2.7122607E0,7.1226585E1,1.5196975E1,1.2322787E0,2.9330997E0,3.5037817E2,1.1499358E1,6.543385E0,4.193585E1,1.3994435E2,4.049562E2,2.5690317E1,7.7889755E1,6.2723823E0,1.1594977E0,1.741943E3,7.417038E1,3.757641E1,7.361269E2,2.7886737E2,1.3610715E2,5.5002813E0,3.2542474E2,6.796646E1,2.0533102E1],"tree_param":{"num_deleted":"0",